{"learner":{"attributes":{},"feature_names":["spo2","bpm","muscle_strength","flow_rate","age","height"],"feature_types":["float","float","float","float","int","int"],"gradient_booster":{"model":{"cats":{"enc":[],"feature_segments":[],"sorted_idx":[]},"gbtree_model_param":{"num_parallel_tree":"1","num_trees":"100"},"iteration_indptr":[0,1,2,3,4,5,6,7,8,9,10,11,12,13,14,15,16,17,18,19,20,21,22,23,24,25,26,27,28,29,30,31,32,33,34,35,36,37,38,39,40,41,42,43,44,45,46,47,48,49,50,51,52,53,54,55,56,57,58,59,60,61,62,63,64,65,66,67,68,69,70,71,72,73,74,75,76,77,78,79,80,81,82,83,84,85,86,87,88,89,90,91,92,93,94,95,96,97,98,99,100],"tree_info":[0,0,0,0,0,0,0,0,0,0,0,0,0,0,0,0,0,0,0,0,0,0,0,0,0,0,0,0,0,0,0,0,0,0,0,0,0,0,0,0,0,0,0,0,0,0,0,0,0,0,0,0,0,0,0,0,0,0,0,0,0,0,0,0,0,0,0,0,0,0,0,0,0,0,0,0,0,0,0,0,0,0,0,0,0,0,0,0,0,0,0,0,0,0,0,0,0,0,0,0],"trees":[{"base_weights":[1.0505734E-7,1.6278807E0,-1.4578352E0,1.6331911E-1,8.3022016E-1,1.6245776E-1,-2.35122E0,1.1834045E-1,1.5904626E-2,-2.5625697E-1,-1.6038334E0,1.5719044E-1,-2.530286E-1],"categories":[],"categories_nodes":[],"categories_segments":[],"categories_sizes":[],"default_left":[0,0,0,0,0,0,0,0,0,0,0,0,0],"id":0,"left_children":[1,3,5,-1,7,-1,9,-1,-1,-1,11,-1,-1],"loss_changes":[2.8244963E3,1.026001E0,1.7328638E3,0E0,1.1754482E0,0E0,7.2848145E1,0E0,0E0,0E0,3.278346E2,0E0,0E0],"parents":[2147483647,0,0,1,1,2,2,4,4,6,6,10,10],"right_children":[2,4,6,-1,8,-1,10,-1,-1,-1,12,-1,-1],"split_conditions":[9.2030396E1,9.195241E1,1.9915023E0,1.6331911E-1,2.571231E0,1.6245776E-1,1.0537861E2,1.1834045E-1,1.5904626E-2,-2.5625697E-1,9.397338E1,1.5719044E-1,-2.530286E-1],"split_indices":[0,0,3,0,3,0,1,0,0,0,0,0,0],"split_type":[0,0,0,0,0,0,0,0,0,0,0,0,0],"sum_hessian":[1.1881729E3,5.6129285E2,6.2688E2,5.5654016E2,4.7526913E0,1.4067967E2,4.8620032E2,2.6139803E0,2.1387112E0,3.7712607E2,1.09074265E2,2.447636E1,8.459791E1],"tree_param":{"num_deleted":"0","num_feature":"6","num_nodes":"13","size_leaf_vector":"1"}},{"base_weights":[4.4410503E-3,1.5323074E0,-1.281474E0,1.537392E-1,7.827282E-1,1.5293986E-1,-2.0342245E0,1.0060459E-1,-3.4279653E-3,-2.208486E-1,-1.4065741E0,1.4805888E-1,-2.1844482E-1],"categories":[],"categories_nodes":[],"categories_segments":[],"categories_sizes":[],"default_left":[0,0,0,0,0,0,0,0,0,0,0,0,0],"id":1,"left_children":[1,3,5,-1,7,-1,9,-1,-1,-1,11,-1,-1],"loss_changes":[2.3172534E3,8.508301E-1,1.3581892E3,0E0,1.0687594E0,0E0,5.2191895E1,0E0,0E0,0E0,2.5616318E2,0E0,0E0],"parents":[2147483647,0,0,1,1,2,2,4,4,6,6,10,10],"right_children":[2,4,6,-1,8,-1,10,-1,-1,-1,12,-1,-1],"split_conditions":[9.2030396E1,9.195241E1,1.9915023E0,1.537392E-1,3.789303E0,1.5293986E-1,1.0537861E2,1.0060459E-1,-3.4279653E-3,-2.208486E-1,9.397338E1,1.4805888E-1,-2.1844482E-1],"split_indices":[0,0,3,0,3,0,1,0,0,0,0,0,0],"split_type":[0,0,0,0,0,0,0,0,0,0,0,0,0],"sum_hessian":[1.1774406E3,5.380099E2,6.394307E2,5.333412E2,4.668731E0,1.3485016E2,5.0458057E2,3.4848247E0,1.1839063E0,3.9295996E2,1.116206E2,2.3498823E1,8.812177E1],"tree_param":{"num_deleted":"0","num_feature":"6","num_nodes":"13","size_leaf_vector":"1"}},{"base_weights":[7.0702913E-3,1.455367E0,-1.157297E0,1.4604008E-1,7.3524785E-1,1.4527182E-1,-1.8172746E0,1.0745825E-1,1.2071281E-2,-1.968075E0,-1.2674217E0,-6.5297484E-2,-1.970574E-1,1.4059687E-1,-1.9479415E-1],"categories":[],"categories_nodes":[],"categories_segments":[],"categories_sizes":[],"default_left":[0,0,0,0,0,0,0,0,0,0,0,0,0,0,0],"id":2,"left_children":[1,3,5,-1,7,-1,9,-1,-1,11,13,-1,-1,-1,-1],"loss_changes":[1.9385068E3,7.833252E-1,1.1003013E3,0E0,1.0318444E0,0E0,3.9716064E1,0E0,0E0,2.0263672E-2,2.0717955E2,0E0,0E0,0E0,0E0],"parents":[2147483647,0,0,1,1,2,2,4,4,6,6,9,9,10,10],"right_children":[2,4,6,-1,8,-1,10,-1,-1,12,14,-1,-1,-1,-1],"split_conditions":[9.2030396E1,9.195241E1,1.9915023E0,1.4604008E-1,2.571231E0,1.4527182E-1,1.0537861E2,1.0745825E-1,1.2071281E-2,2.0123377E0,9.397338E1,-6.5297484E-2,-1.970574E-1,1.4059687E-1,-1.9479415E-1],"split_indices":[0,0,3,0,3,0,1,0,0,3,0,0,0,0,0],"split_type":[0,0,0,0,0,0,0,0,0,0,0,0,0,0,0],"sum_hessian":[1.1475298E3,5.1130005E2,6.3622974E2,5.067299E2,4.570151E0,1.2816684E2,5.0806293E2,2.4620457E0,2.1081054E0,3.9668927E2,1.1137366E2,1.2498087E0,3.9543945E2,2.2381792E1,8.899187E1],"tree_param":{"num_deleted":"0","num_feature":"6","num_nodes":"15","size_leaf_vector":"1"}},{"base_weights":[8.720735E-3,1.392363E0,-1.0652066E0,1.3974106E-1,6.961196E-1,1.3898194E-1,-1.6595391E0,1.0262801E-1,1.1277055E-2,-1.7943017E-1,-1.1638528E0,1.3438582E-1,-1.7758745E-1],"categories":[],"categories_nodes":[],"categories_segments":[],"categories_sizes":[],"default_left":[0,0,0,0,0,0,0,0,0,0,0,0,0],"id":3,"left_children":[1,3,5,-1,7,-1,9,-1,-1,-1,11,-1,-1],"loss_changes":[1.6444525E3,7.2680664E-1,9.1144354E2,0E0,9.384618E-1,0E0,3.145166E1,0E0,0E0,0E0,1.7147585E2,0E0,0E0],"parents":[2147483647,0,0,1,1,2,2,4,4,6,6,10,10],"right_children":[2,4,6,-1,8,-1,10,-1,-1,-1,12,-1,-1],"split_conditions":[9.2030396E1,9.195241E1,1.9915023E0,1.3974106E-1,2.571231E0,1.3898194E-1,1.0537861E2,1.0262801E-1,1.1277055E-2,-1.7943017E-1,9.397338E1,1.3438582E-1,-1.7758745E-1],"split_indices":[0,0,3,0,3,0,1,0,0,0,0,0,0],"split_type":[0,0,0,0,0,0,0,0,0,0,0,0,0],"sum_hessian":[1.1046833E3,4.826033E2,6.2208E2,4.781298E2,4.4735312E0,1.20985085E2,5.0109494E2,2.3718407E0,2.1016908E0,3.9192276E2,1.0917218E2,2.1182552E1,8.798963E1],"tree_param":{"num_deleted":"0","num_feature":"6","num_nodes":"13","size_leaf_vector":"1"}},{"base_weights":[9.8912455E-3,1.3399806E0,-9.941339E-1,1.3451247E-1,6.6022855E-1,1.3374583E-1,-1.5396676E0,9.828039E-2,1.053477E-2,-1.6628121E0,-1.0837563E0,-5.2307058E-2,-1.6651115E-1,1.2913357E-1,-1.6451705E-1],"categories":[],"categories_nodes":[],"categories_segments":[],"categories_sizes":[],"default_left":[0,0,0,0,0,0,0,0,0,0,0,0,0,0,0],"id":4,"left_children":[1,3,5,-1,7,-1,9,-1,-1,11,13,-1,-1,-1,-1],"loss_changes":[1.4094127E3,6.992798E-1,7.670385E2,0E0,8.583157E-1,0E0,2.5587036E1,0E0,0E0,1.307373E-1,1.4429156E2,0E0,0E0,0E0,0E0],"parents":[2147483647,0,0,1,1,2,2,4,4,6,6,9,9,10,10],"right_children":[2,4,6,-1,8,-1,10,-1,-1,12,14,-1,-1,-1,-1],"split_conditions":[9.2030396E1,9.195241E1,1.9915023E0,1.3451247E-1,2.571231E0,1.3374583E-1,1.0537861E2,9.828039E-2,1.053477E-2,2.0123377E0,9.397338E1,-5.2307058E-2,-1.6651115E-1,1.2913357E-1,-1.6451705E-1],"split_indices":[0,0,3,0,3,0,1,0,0,3,0,0,0,0,0],"split_type":[0,0,0,0,0,0,0,0,0,0,0,0,0,0,0],"sum_hessian":[1.053392E3,4.5297525E2,6.0041675E2,4.4860153E2,4.373746E0,1.1357015E2,4.868466E2,2.278159E0,2.0955868E0,3.812274E2,1.05619194E2,1.2275794E0,3.7999982E2,1.9944174E1,8.5675026E1],"tree_param":{"num_deleted":"0","num_feature":"6","num_nodes":"15","size_leaf_vector":"1"}},{"base_weights":[1.0678777E-2,1.2958918E0,-9.378883E-1,1.3012032E-1,6.271094E-1,1.2933277E-1,-1.4458779E0,9.4331115E-2,9.841019E-3,-1.5603412E0,-1.0199821E0,-4.9644396E-2,-1.5625243E-1,1.199248E-1,-1.5544797E-1],"categories":[],"categories_nodes":[],"categories_segments":[],"categories_sizes":[],"default_left":[0,0,0,0,0,0,0,0,0,0,0,0,0,0,0],"id":5,"left_children":[1,3,5,-1,7,-1,9,-1,-1,11,13,-1,-1,-1,-1],"loss_changes":[1.217845E3,6.907959E-1,6.533255E2,0E0,7.886448E-1,0E0,2.1254639E1,0E0,0E0,7.7819824E-2,1.2304329E2,0E0,0E0,0E0,0E0],"parents":[2147483647,0,0,1,1,2,2,4,4,6,6,9,9,10,10],"right_children":[2,4,6,-1,8,-1,10,-1,-1,12,14,-1,-1,-1,-1],"split_conditions":[9.2030396E1,9.195241E1,1.9915023E0,1.3012032E-1,2.571231E0,1.2933277E-1,1.0537861E2,9.4331115E-2,9.841019E-3,2.0123377E0,9.402331E1,-4.9644396E-2,-1.5625243E-1,1.199248E-1,-1.5544797E-1],"split_indices":[0,0,3,0,3,0,1,0,0,3,0,0,0,0,0],"split_type":[0,0,0,0,0,0,0,0,0,0,0,0,0,0,0],"sum_hessian":[9.969647E2,4.2320218E2,5.737625E2,4.1892944E2,4.2727556E0,1.0611836E2,4.6764417E2,2.1829667E0,2.089789E0,3.664845E2,1.0115967E2,1.218193E0,3.652663E2,1.9393658E1,8.176601E1],"tree_param":{"num_deleted":"0","num_feature":"6","num_nodes":"15","size_leaf_vector":"1"}},{"base_weights":[1.124379E-2,1.2583941E0,-8.9225066E-1,1.263937E-1,5.963932E-1,1.2557371E-1,-1.3704617E0,8.0182564E-1,-5.631388E-3,-1.4784198E0,-9.674926E-1,2.3051891E-2,9.212592E-2,-4.7148943E-2,-1.4805543E-1,1.20858245E-1,-1.4610611E-1],"categories":[],"categories_nodes":[],"categories_segments":[],"categories_sizes":[],"default_left":[0,0,0,0,0,0,0,0,0,0,0,0,0,0,0,0,0],"id":6,"left_children":[1,3,5,-1,7,-1,9,11,-1,13,15,-1,-1,-1,-1,-1,-1],"loss_changes":[1.0590891E3,6.951294E-1,5.616017E2,0E0,7.386646E-1,0E0,1.7984741E1,6.0534716E-2,0E0,5.444336E-2,1.06155396E2,0E0,0E0,0E0,0E0,0E0,0E0],"parents":[2147483647,0,0,1,1,2,2,4,4,6,6,7,7,9,9,10,10],"right_children":[2,4,6,-1,8,-1,10,12,-1,14,16,-1,-1,-1,-1,-1,-1],"split_conditions":[9.2030396E1,9.195241E1,1.9915023E0,1.263937E-1,3.789303E0,1.2557371E-1,1.0537861E2,8.3103485E1,-5.631388E-3,2.0123377E0,9.397338E1,2.3051891E-2,9.212592E-2,-4.7148943E-2,-1.4805543E-1,1.20858245E-1,-1.4610611E-1],"split_indices":[0,0,3,0,3,0,1,1,0,3,0,0,0,0,0,0,0],"split_type":[0,0,0,0,0,0,0,0,0,0,0,0,0,0,0,0,0],"sum_hessian":[9.379177E2,3.9385797E2,5.4405975E2,3.8968588E2,4.1720886E0,9.877312E1,4.4528662E2,2.999551E0,1.1725376E0,3.490934E2,9.619322E1,1.025276E0,1.9742751E0,1.2078607E0,3.4788553E2,1.7516542E1,7.867668E1],"tree_param":{"num_deleted":"0","num_feature":"6","num_nodes":"17","size_leaf_vector":"1"}},{"base_weights":[1.1703863E-2,1.2262084E0,-8.546963E-1,1.2320471E-1,5.6864476E-1,1.22342005E-1,-1.308927E0,8.802759E-2,7.761955E-3,-1.4116563E0,-9.2429125E-1,-4.4805434E-2,-1.4137939E-1,1.124887E-1,-1.4051591E-1],"categories":[],"categories_nodes":[],"categories_segments":[],"categories_sizes":[],"default_left":[0,0,0,0,0,0,0,0,0,0,0,0,0,0,0],"id":7,"left_children":[1,3,5,-1,7,-1,9,-1,-1,11,13,-1,-1,-1,-1],"loss_changes":[9.259034E2,7.058716E-1,4.8638516E2,0E0,7.09242E-1,0E0,1.5367249E1,0E0,0E0,4.8583984E-2,9.20725E1,0E0,0E0,0E0,0E0],"parents":[2147483647,0,0,1,1,2,2,4,4,6,6,9,9,10,10],"right_children":[2,4,6,-1,8,-1,10,-1,-1,12,14,-1,-1,-1,-1],"split_conditions":[9.2030396E1,9.195241E1,1.9915023E0,1.2320471E-1,2.571231E0,1.22342005E-1,1.0537861E2,8.802759E-2,7.761955E-3,2.0123377E0,9.402331E1,-4.4805434E-2,-1.4137939E-1,1.124887E-1,-1.4051591E-1],"split_indices":[0,0,3,0,3,0,1,0,0,3,0,0,0,0,0],"split_type":[0,0,0,0,0,0,0,0,0,0,0,0,0,0,0],"sum_hessian":[8.779338E2,3.6536133E2,5.1257245E2,3.6127982E2,4.0815268E0,9.163711E1,4.2093533E2,2.011922E0,2.0696049E0,3.301012E2,9.083414E1,1.1968086E0,3.289044E2,1.7009645E1,7.382449E1],"tree_param":{"num_deleted":"0","num_feature":"6","num_nodes":"15","size_leaf_vector":"1"}},{"base_weights":[1.2046492E-2,1.1983643E0,-8.2322127E-1,1.20455734E-1,5.4175574E-1,1.1954057E-1,-1.2576705E0,8.4883936E-2,7.2498354E-3,-1.3563936E0,-8.873895E-1,-4.2600628E-2,-1.3585758E-1,1.1445862E-1,-1.3378672E-1],"categories":[],"categories_nodes":[],"categories_segments":[],"categories_sizes":[],"default_left":[0,0,0,0,0,0,0,0,0,0,0,0,0,0,0],"id":8,"left_children":[1,3,5,-1,7,-1,9,-1,-1,11,13,-1,-1,-1,-1],"loss_changes":[8.129668E2,7.258606E-1,4.2374185E2,0E0,6.5676105E-1,0E0,1.3297119E1,0E0,0E0,5.328369E-2,8.061065E1,0E0,0E0,0E0,0E0],"parents":[2147483647,0,0,1,1,2,2,4,4,6,6,9,9,10,10],"right_children":[2,4,6,-1,8,-1,10,-1,-1,12,14,-1,-1,-1,-1],"split_conditions":[9.2030396E1,9.195241E1,1.9915023E0,1.20455734E-1,2.571231E0,1.1954057E-1,1.0537861E2,8.4883936E-2,7.2498354E-3,2.0123377E0,9.397338E1,-4.2600628E-2,-1.3585758E-1,1.1445862E-1,-1.3378672E-1],"split_indices":[0,0,3,0,3,0,1,0,0,3,0,0,0,0,0],"split_type":[0,0,0,0,0,0,0,0,0,0,0,0,0,0,0],"sum_hessian":[8.184429E2,3.3798016E2,4.8046268E2,3.3399548E2,3.984694E0,8.478158E1,3.956811E2,1.9196014E0,2.0650926E0,3.1028958E2,8.5391525E1,1.1852299E0,3.0910434E2,1.5215947E1,7.017558E1],"tree_param":{"num_deleted":"0","num_feature":"6","num_nodes":"15","size_leaf_vector":"1"}},{"base_weights":[1.23536065E-2,1.1741003E0,-7.966252E-1,1.1807074E-1,5.165673E-1,1.1709368E-1,-1.2146552E0,8.195119E-2,6.7712935E-3,-1.3100588E0,-8.5611606E-1,-4.0522974E-2,-1.3123217E-1,1.0646039E-1,-1.302418E-1],"categories":[],"categories_nodes":[],"categories_segments":[],"categories_sizes":[],"default_left":[0,0,0,0,0,0,0,0,0,0,0,0,0,0,0],"id":9,"left_children":[1,3,5,-1,7,-1,9,-1,-1,11,13,-1,-1,-1,-1],"loss_changes":[7.1641394E2,7.494812E-1,3.7103378E2,0E0,6.095406E-1,0E0,1.1572937E1,0E0,0E0,6.454468E-2,7.072147E1,0E0,0E0,0E0,0E0],"parents":[2147483647,0,0,1,1,2,2,4,4,6,6,9,9,10,10],"right_children":[2,4,6,-1,8,-1,10,-1,-1,12,14,-1,-1,-1,-1],"split_conditions":[9.2030396E1,9.195241E1,1.9915023E0,1.1807074E-1,2.571231E0,1.1709368E-1,1.0537861E2,8.195119E-2,6.7712935E-3,2.0123377E0,9.402331E1,-4.0522974E-2,-1.3123217E-1,1.0646039E-1,-1.302418E-1],"split_indices":[0,0,3,0,3,0,1,0,0,3,0,0,0,0,0],"split_type":[0,0,0,0,0,0,0,0,0,0,0,0,0,0,0],"sum_hessian":[7.6028644E2,3.1191077E2,4.4837567E2,3.0802002E2,3.890733E0,7.825378E1,3.701219E2,1.8298972E0,2.0608358E0,2.9023853E2,7.9883354E1,1.1732888E0,2.8906525E2,1.480079E1,6.5082565E1],"tree_param":{"num_deleted":"0","num_feature":"6","num_nodes":"15","size_leaf_vector":"1"}},{"base_weights":[1.2600563E-2,1.1528144E0,-7.7380586E-1,1.1598971E-1,4.9291238E-1,1.1494128E-1,-1.1779165E0,6.902628E-1,-6.5156645E-3,-1.2707864E0,-8.286074E-1,8.051028E-2,2.1499645E-2,-3.856235E-2,-1.2731628E-1,1.0929383E-1,-1.2501465E-1],"categories":[],"categories_nodes":[],"categories_segments":[],"categories_sizes":[],"default_left":[0,0,0,0,0,0,0,0,0,0,0,0,0,0,0,0,0],"id":10,"left_children":[1,3,5,-1,7,-1,9,11,-1,13,15,-1,-1,-1,-1,-1,-1],"loss_changes":[6.3326483E2,7.7563477E-1,3.2620264E2,0E0,5.736375E-1,0E0,1.0167908E1,2.5158525E-2,0E0,7.9956055E-2,6.2539104E1,0E0,0E0,0E0,0E0,0E0,0E0],"parents":[2147483647,0,0,1,1,2,2,4,4,6,6,7,7,9,9,10,10],"right_children":[2,4,6,-1,8,-1,10,12,-1,14,16,-1,-1,-1,-1,-1,-1],"split_conditions":[9.2030396E1,9.195241E1,1.9915023E0,1.1598971E-1,3.789303E0,1.1494128E-1,1.0537861E2,6.5098816E1,-6.5156645E-3,2.0123377E0,9.397338E1,8.051028E-2,2.1499645E-2,-3.856235E-2,-1.2731628E-1,1.0929383E-1,-1.2501465E-1],"split_indices":[0,0,3,0,3,0,1,2,0,3,0,0,0,0,0,0,0],"split_type":[0,0,0,0,0,0,0,0,0,0,0,0,0,0,0,0,0],"sum_hessian":[7.042447E2,2.872679E2,4.169768E2,2.8346777E2,3.8001227E0,7.20824E1,3.448944E2,2.6323614E0,1.1677612E0,2.703731E2,7.452132E1,1.5611359E0,1.0712255E0,1.1611236E0,2.6921198E2,1.31204195E1,6.1400898E1],"tree_param":{"num_deleted":"0","num_feature":"6","num_nodes":"17","size_leaf_vector":"1"}},{"base_weights":[1.2865558E-2,1.1340101E0,-7.541361E-1,1.1416453E-1,4.7153345E-1,1.13035016E-1,-1.1464508E0,7.72635E-2,5.1298714E-3,-1.2371883E0,-8.047331E-1,-3.670981E-2,-1.2397098E-1,1.0135698E-1,-1.22803845E-1],"categories":[],"categories_nodes":[],"categories_segments":[],"categories_sizes":[],"default_left":[0,0,0,0,0,0,0,0,0,0,0,0,0,0,0],"id":11,"left_children":[1,3,5,-1,7,-1,9,-1,-1,11,13,-1,-1,-1,-1],"loss_changes":[5.612413E2,8.0270386E-1,2.8781693E2,0E0,5.581614E-1,0E0,8.965881E0,0E0,0E0,9.7717285E-2,5.533079E1,0E0,0E0,0E0,0E0],"parents":[2147483647,0,0,1,1,2,2,4,4,6,6,9,9,10,10],"right_children":[2,4,6,-1,8,-1,10,-1,-1,12,14,-1,-1,-1,-1],"split_conditions":[9.2030396E1,9.195241E1,1.9915023E0,1.1416453E-1,2.571231E0,1.13035016E-1,1.0537861E2,7.72635E-2,5.1298714E-3,2.0123377E0,9.402331E1,-3.670981E-2,-1.2397098E-1,1.0135698E-1,-1.22803845E-1],"split_indices":[0,0,3,0,3,0,1,0,0,3,0,0,0,0,0],"split_type":[0,0,0,0,0,0,0,0,0,0,0,0,0,0,0],"sum_hessian":[6.5067255E2,2.6412146E2,3.8655112E2,2.6039703E2,3.7244196E0,6.6282326E1,3.202688E2,1.6812274E0,2.0431921E0,2.5099948E2,6.926931E1,1.14885E0,2.4985063E2,1.2817494E1,5.6451817E1],"tree_param":{"num_deleted":"0","num_feature":"6","num_nodes":"15","size_leaf_vector":"1"}},{"base_weights":[1.3075563E-2,1.1173161E0,-7.3694104E-1,1.12556174E-1,4.5045075E-1,1.1133548E-1,-1.1190451E0,7.891602E-2,6.1309956E-2,-1.2082094E0,-7.8319216E-1,-1.8273612E-2,2.6457364E-2,-3.4957457E-2,-1.2109067E-1,1.0495534E-1,-1.1846566E-1],"categories":[],"categories_nodes":[],"categories_segments":[],"categories_sizes":[],"default_left":[0,0,0,0,0,0,0,0,0,0,0,0,0,0,0,0,0],"id":12,"left_children":[1,3,5,-1,7,-1,9,-1,11,13,15,-1,-1,-1,-1,-1,-1],"loss_changes":[4.9851602E2,8.317566E-1,2.546852E2,0E0,5.633044E-1,0E0,7.965973E0,0E0,2.0926173E-1,1.17126465E-1,4.927402E1,0E0,0E0,0E0,0E0,0E0,0E0],"parents":[2147483647,0,0,1,1,2,2,4,4,6,6,8,8,9,9,10,10],"right_children":[2,4,6,-1,8,-1,10,-1,12,14,16,-1,-1,-1,-1,-1,-1],"split_conditions":[9.2030396E1,9.195241E1,1.9915023E0,1.12556174E-1,1.68E2,1.1133548E-1,1.0537861E2,7.891602E-2,1.76E2,2.0123377E0,9.397338E1,-1.8273612E-2,2.6457364E-2,-3.4957457E-2,-1.2109067E-1,1.0495534E-1,-1.1846566E-1],"split_indices":[0,0,3,0,5,0,1,0,5,3,0,0,0,0,0,0,0],"split_type":[0,0,0,0,0,0,0,0,0,0,0,0,0,0,0,0,0],"sum_hessian":[5.9993384E2,2.424653E2,3.5746854E2,2.3882448E2,3.6408312E0,6.085779E1,2.9661072E2,1.3969586E0,2.2438726E0,2.3233235E2,6.427838E1,1.0655377E0,1.178335E0,1.1365646E0,2.3119579E2,1.1260085E1,5.30183E1],"tree_param":{"num_deleted":"0","num_feature":"6","num_nodes":"17","size_leaf_vector":"1"}},{"base_weights":[1.3324712E-2,1.1023552E0,-7.218723E-1,1.111326E-1,4.3070546E-1,1.0981011E-1,-1.0951906E0,7.332086E-2,3.2728591E-3,-1.1830314E0,-7.6408637E-1,-3.329819E-2,-1.18593626E-1,9.686565E-2,-1.1720335E-1],"categories":[],"categories_nodes":[],"categories_segments":[],"categories_sizes":[],"default_left":[0,0,0,0,0,0,0,0,0,0,0,0,0,0,0],"id":13,"left_children":[1,3,5,-1,7,-1,9,-1,-1,11,13,-1,-1,-1,-1],"loss_changes":[4.4364954E2,8.668518E-1,2.2596104E2,0E0,5.2691656E-1,0E0,7.0942383E0,0E0,0E0,1.3726807E-1,4.388899E1,0E0,0E0,0E0,0E0],"parents":[2147483647,0,0,1,1,2,2,4,4,6,6,9,9,10,10],"right_children":[2,4,6,-1,8,-1,10,-1,-1,12,14,-1,-1,-1,-1],"split_conditions":[9.2030396E1,9.195241E1,1.9915023E0,1.111326E-1,2.571231E0,1.0981011E-1,1.0537861E2,7.332086E-2,3.2728591E-3,2.0123377E0,9.402331E1,-3.329819E-2,-1.18593626E-1,9.686565E-2,-1.1720335E-1],"split_indices":[0,0,3,0,3,0,1,0,0,3,0,0,0,0,0],"split_type":[0,0,0,0,0,0,0,0,0,0,0,0,0,0,0],"sum_hessian":[5.5211646E2,2.2231175E2,3.298047E2,2.1873566E2,3.5761013E0,5.5805317E1,2.7399936E2,1.5531832E0,2.022918E0,2.1451605E2,5.9483326E1,1.1243473E0,2.133917E2,1.1073691E1,4.8409634E1],"tree_param":{"num_deleted":"0","num_feature":"6","num_nodes":"15","size_leaf_vector":"1"}},{"base_weights":[1.3528203E-2,1.0889369E0,-7.084823E-1,1.09867215E-1,4.118529E-1,1.084317E-1,-1.074063E0,7.503784E-2,3.8090315E-2,-1.1610101E0,-7.4644566E-1,-1.8796798E-2,2.4867034E-2,-3.172571E-2,-1.16415516E-1,1.0116946E-1,-1.1337552E-1],"categories":[],"categories_nodes":[],"categories_segments":[],"categories_sizes":[],"default_left":[0,0,0,0,0,0,0,0,0,0,0,0,0,0,0,0,0],"id":14,"left_children":[1,3,5,-1,7,-1,9,-1,11,13,15,-1,-1,-1,-1,-1,-1],"loss_changes":[3.9548074E2,8.961029E-1,2.0090382E2,0E0,5.407492E-1,0E0,6.3583374E0,0E0,1.9869186E-1,1.578064E-1,3.9277428E1,0E0,0E0,0E0,0E0,0E0,0E0],"parents":[2147483647,0,0,1,1,2,2,4,4,6,6,8,8,9,9,10,10],"right_children":[2,4,6,-1,8,-1,10,-1,12,14,16,-1,-1,-1,-1,-1,-1],"split_conditions":[9.2030396E1,9.195241E1,1.9915023E0,1.09867215E-1,1.68E2,1.084317E-1,1.0537861E2,7.503784E-2,5.42452E1,2.0123377E0,9.397338E1,-1.8796798E-2,2.4867034E-2,-3.172571E-2,-1.16415516E-1,1.0116946E-1,-1.1337552E-1],"split_indices":[0,0,3,0,5,0,1,0,2,3,0,0,0,0,0,0,0],"split_type":[0,0,0,0,0,0,0,0,0,0,0,0,0,0,0,0,0],"sum_hessian":[5.0734695E2,2.035935E2,3.0375342E2,2.0009387E2,3.499641E0,5.111594E1,2.526375E2,1.3076439E0,2.191997E0,1.9764114E2,5.4996353E1,1.1089334E0,1.0830636E0,1.1122633E0,1.9652887E2,9.637247E0,4.5359108E1],"tree_param":{"num_deleted":"0","num_feature":"6","num_nodes":"17","size_leaf_vector":"1"}},{"base_weights":[1.37892775E-2,1.0767324E0,-6.96567E-1,1.0873782E-1,3.9404336E-1,1.07177295E-1,-1.0554104E0,6.9986485E-2,1.3685046E-3,-1.1416303E0,-7.3045456E-1,-3.0234307E-2,-1.14504986E-1,9.2778295E-2,-1.1284273E-1],"categories":[],"categories_nodes":[],"categories_segments":[],"categories_sizes":[],"default_left":[0,0,0,0,0,0,0,0,0,0,0,0,0,0,0],"id":15,"left_children":[1,3,5,-1,7,-1,9,-1,-1,11,13,-1,-1,-1,-1],"loss_changes":[3.5303677E2,9.326782E-1,1.7897984E2,0E0,5.073648E-1,0E0,5.7080994E0,0E0,0E0,1.7829895E-1,3.5190857E1,0E0,0E0,0E0,0E0],"parents":[2147483647,0,0,1,1,2,2,4,4,6,6,9,9,10,10],"right_children":[2,4,6,-1,8,-1,10,-1,-1,12,14,-1,-1,-1,-1],"split_conditions":[9.2030396E1,9.195241E1,1.9915023E0,1.0873782E-1,2.571231E0,1.07177295E-1,1.0537861E2,6.9986485E-2,1.3685046E-3,2.0123377E0,9.402331E1,-3.0234307E-2,-1.14504986E-1,9.2778295E-2,-1.1284273E-1],"split_indices":[0,0,3,0,3,0,1,0,0,3,0,0,0,0,0],"split_type":[0,0,0,0,0,0,0,0,0,0,0,0,0,0,0],"sum_hessian":[4.6556277E2,1.8629062E2,2.7927213E2,1.8284656E2,3.4440734E0,4.6776432E1,2.3249571E2,1.4434634E0,2.00061E0,1.8175725E2,5.0738457E1,1.1003656E0,1.8065689E2,9.562596E0,4.117586E1],"tree_param":{"num_deleted":"0","num_feature":"6","num_nodes":"15","size_leaf_vector":"1"}},{"base_weights":[1.4004283E-2,1.0656667E0,-6.8581486E-1,1.0772561E-1,3.7714863E-1,1.060273E-1,-1.0386304E0,7.154383E-2,1.8463628E-2,-1.1244733E0,-7.153779E-1,2.3230894E-2,-2.0181814E-2,-2.8818816E-2,-1.1282041E-1,9.774635E-2,-1.0926709E-1],"categories":[],"categories_nodes":[],"categories_segments":[],"categories_sizes":[],"default_left":[0,0,0,0,0,0,0,0,0,0,0,0,0,0,0,0,0],"id":16,"left_children":[1,3,5,-1,7,-1,9,-1,11,13,15,-1,-1,-1,-1,-1,-1],"loss_changes":[3.1554745E2,9.606476E-1,1.5970282E2,0E0,5.175819E-1,0E0,5.1527405E0,0E0,1.9525492E-1,1.9865417E-1,3.1595346E1,0E0,0E0,0E0,0E0,0E0,0E0],"parents":[2147483647,0,0,1,1,2,2,4,4,6,6,8,8,9,9,10,10],"right_children":[2,4,6,-1,8,-1,10,-1,12,14,16,-1,-1,-1,-1,-1,-1],"split_conditions":[9.2030396E1,9.195241E1,1.9915023E0,1.0772561E-1,1.68E2,1.060273E-1,1.0537861E2,7.154383E-2,8.6838165E1,2.0123377E0,9.397338E1,2.3230894E-2,-2.0181814E-2,-2.8818816E-2,-1.1282041E-1,9.774635E-2,-1.0926709E-1],"split_indices":[0,0,3,0,5,0,1,0,1,3,0,0,0,0,0,0,0],"split_type":[0,0,0,0,0,0,0,0,0,0,0,0,0,0,0,0,0],"sum_hessian":[4.2675537E2,1.7030481E2,2.5645056E2,1.6693037E2,3.3744376E0,4.2771038E1,2.1367952E2,1.2247317E0,2.149706E0,1.6688332E2,4.6796196E1,1.0630846E0,1.0866213E0,1.0886968E0,1.6579463E2,8.238938E0,3.855726E1],"tree_param":{"num_deleted":"0","num_feature":"6","num_nodes":"17","size_leaf_vector":"1"}},{"base_weights":[1.4291348E-2,1.0554492E0,-6.760953E-1,1.06814586E-1,3.6116478E-1,1.04964785E-1,-1.02361E0,6.693273E-2,-2.3852148E-4,-1.1091964E0,-7.0139503E-1,-2.7474571E-2,-1.1132778E-1,8.8956244E-2,-1.0933932E-1],"categories":[],"categories_nodes":[],"categories_segments":[],"categories_sizes":[],"default_left":[0,0,0,0,0,0,0,0,0,0,0,0,0,0,0],"id":17,"left_children":[1,3,5,-1,7,-1,9,-1,-1,11,13,-1,-1,-1,-1],"loss_changes":[2.8232748E2,9.946594E-1,1.427189E2,0E0,4.8593634E-1,0E0,4.6575317E0,0E0,0E0,2.1865845E-1,2.8467108E1,0E0,0E0,0E0,0E0],"parents":[2147483647,0,0,1,1,2,2,4,4,6,6,9,9,10,10],"right_children":[2,4,6,-1,8,-1,10,-1,-1,12,14,-1,-1,-1,-1],"split_conditions":[9.2030396E1,9.195241E1,1.9915023E0,1.06814586E-1,2.571231E0,1.04964785E-1,1.0537861E2,6.693273E-2,-2.3852148E-4,2.0123377E0,9.402331E1,-2.7474571E-2,-1.1132778E-1,8.8956244E-2,-1.0933932E-1],"split_indices":[0,0,3,0,3,0,1,0,0,3,0,0,0,0,0],"split_type":[0,0,0,0,0,0,0,0,0,0,0,0,0,0,0],"sum_hessian":[3.9078256E2,1.5559866E2,2.351839E2,1.5227545E2,3.3232088E0,3.908232E1,1.9610158E2,1.3433949E0,1.979814E0,1.5301538E2,4.3086197E1,1.07729E0,1.519381E2,8.266522E0,3.4819675E1],"tree_param":{"num_deleted":"0","num_feature":"6","num_nodes":"15","size_leaf_vector":"1"}},{"base_weights":[1.4530781E-2,1.0460619E0,-6.6718894E-1,1.0599103E-1,3.4602326E-1,1.0397505E-1,-1.0098873E0,6.837042E-2,1.6720911E-3,-1.0955144E0,-6.879723E-1,-2.0445175E-2,2.1134717E-2,-2.6197275E-2,-1.099989E-1,9.455168E-2,-1.05822824E-1],"categories":[],"categories_nodes":[],"categories_segments":[],"categories_sizes":[],"default_left":[0,0,0,0,0,0,0,0,0,0,0,0,0,0,0,0,0],"id":18,"left_children":[1,3,5,-1,7,-1,9,-1,11,13,15,-1,-1,-1,-1,-1,-1],"loss_changes":[2.5284961E2,1.0202332E0,1.27696075E2,0E0,4.9421817E-1,0E0,4.230301E0,0E0,1.7769246E-1,2.381897E-1,2.560266E1,0E0,0E0,0E0,0E0,0E0,0E0],"parents":[2147483647,0,0,1,1,2,2,4,4,6,6,8,8,9,9,10,10],"right_children":[2,4,6,-1,8,-1,10,-1,12,14,16,-1,-1,-1,-1,-1,-1],"split_conditions":[9.2030396E1,9.195241E1,1.9915023E0,1.0599103E-1,1.68E2,1.0397505E-1,1.0537861E2,6.837042E-2,5.42452E1,2.0123377E0,9.397338E1,-2.0445175E-2,2.1134717E-2,-2.6197275E-2,-1.099989E-1,9.455168E-2,-1.05822824E-1],"split_indices":[0,0,3,0,5,0,1,0,2,3,0,0,0,0,0,0,0],"split_type":[0,0,0,0,0,0,0,0,0,0,0,0,0,0,0,0,0],"sum_hessian":[3.575698E2,1.4206796E2,2.1550183E2,1.3880792E2,3.2600446E0,3.5691704E1,1.7981013E2,1.1484025E0,2.1116421E0,1.4013268E2,3.9677452E1,1.0774007E0,1.0342414E0,1.0661714E0,1.3906651E2,7.0445843E0,3.263287E1],"tree_param":{"num_deleted":"0","num_feature":"6","num_nodes":"17","size_leaf_vector":"1"}},{"base_weights":[1.4856815E-2,1.0372463E0,-6.5899837E-1,1.0524305E-1,3.3170193E-1,1.0304518E-1,-9.97421E-1,6.4130954E-2,-1.5913111E-3,-1.083188E0,-6.7521816E-1,-2.4983019E-2,-1.08810164E-1,8.530968E-2,-1.06434144E-1],"categories":[],"categories_nodes":[],"categories_segments":[],"categories_sizes":[],"default_left":[0,0,0,0,0,0,0,0,0,0,0,0,0,0,0],"id":19,"left_children":[1,3,5,-1,7,-1,9,-1,-1,11,13,-1,-1,-1,-1],"loss_changes":[2.2661313E2,1.0507355E0,1.1438898E2,0E0,4.636333E-1,0E0,3.847351E0,0E0,0E0,2.572174E-1,2.3202225E1,0E0,0E0,0E0,0E0],"parents":[2147483647,0,0,1,1,2,2,4,4,6,6,9,9,10,10],"right_children":[2,4,6,-1,8,-1,10,-1,-1,12,14,-1,-1,-1,-1],"split_conditions":[9.2030396E1,9.195241E1,1.9915023E0,1.0524305E-1,2.571231E0,1.0304518E-1,1.0537861E2,6.4130954E-2,-1.5913111E-3,2.0123377E0,9.402331E1,-2.4983019E-2,-1.08810164E-1,8.530968E-2,-1.06434144E-1],"split_indices":[0,0,3,0,3,0,1,0,0,3,0,0,0,0,0],"split_type":[0,0,0,0,0,0,0,0,0,0,0,0,0,0,0],"sum_hessian":[3.2693677E2,1.2966563E2,1.9727113E2,1.2645257E2,3.2130659E0,3.258044E1,1.6469069E2,1.2525673E0,1.9604985E0,1.2820267E2,3.6488026E1,1.05536E0,1.2714731E2,7.1628723E0,2.9325151E1],"tree_param":{"num_deleted":"0","num_feature":"6","num_nodes":"15","size_leaf_vector":"1"}},{"base_weights":[1.512928E-2,1.0290239E0,-6.513746E-1,1.0456027E-1,3.181368E-1,1.02163695E-1,-9.8585105E-1,6.546932E-2,-1.2554916E-2,-1.0720143E0,-6.628062E-1,1.9852905E-2,-2.1333108E-2,-2.3828197E-2,-1.0774169E-1,9.149021E-2,-1.0281973E-1],"categories":[],"categories_nodes":[],"categories_segments":[],"categories_sizes":[],"default_left":[0,0,0,0,0,0,0,0,0,0,0,0,0,0,0,0,0],"id":20,"left_children":[1,3,5,-1,7,-1,9,-1,11,13,15,-1,-1,-1,-1,-1,-1],"loss_changes":[2.0325005E2,1.0732651E0,1.0256504E2,0E0,4.7075805E-1,0E0,3.5136108E0,0E0,1.7277478E-1,2.7560425E-1,2.0872055E1,0E0,0E0,0E0,0E0,0E0,0E0],"parents":[2147483647,0,0,1,1,2,2,4,4,6,6,8,8,9,9,10,10],"right_children":[2,4,6,-1,8,-1,10,-1,12,14,16,-1,-1,-1,-1,-1,-1],"split_conditions":[9.2030396E1,9.195241E1,1.9915023E0,1.0456027E-1,1.68E2,1.02163695E-1,1.0537861E2,6.546932E-2,8.6838165E1,2.0123377E0,9.397338E1,1.9852905E-2,-2.1333108E-2,-2.3828197E-2,-1.0774169E-1,9.149021E-2,-1.0281973E-1],"split_indices":[0,0,3,0,5,0,1,0,1,3,0,0,0,0,0,0,0],"split_type":[0,0,0,0,0,0,0,0,0,0,0,0,0,0,0,0,0],"sum_hessian":[2.9877856E2,1.18290115E2,1.8048843E2,1.151342E2,3.1559153E0,2.9729683E1,1.5075876E2,1.0785099E0,2.0774055E0,1.17184555E2,3.3574203E1,1.0181627E0,1.0592427E0,1.0448697E0,1.1613969E2,6.030676E0,2.7543528E1],"tree_param":{"num_deleted":"0","num_feature":"6","num_nodes":"17","size_leaf_vector":"1"}},{"base_weights":[1.5504468E-2,1.0211552E0,-6.442258E-1,1.03933595E-1,3.0526686E-1,1.01320386E-1,-9.751639E-1,6.153478E-2,-2.7165439E-3,-1.0618196E0,-6.5071064E-1,-2.2729477E-2,-1.0677655E-1,8.178455E-2,-1.0394352E-1],"categories":[],"categories_nodes":[],"categories_segments":[],"categories_sizes":[],"default_left":[0,0,0,0,0,0,0,0,0,0,0,0,0,0,0],"id":21,"left_children":[1,3,5,-1,7,-1,9,-1,-1,11,13,-1,-1,-1,-1],"loss_changes":[1.8238228E2,1.0999985E0,9.204691E1,0E0,4.4066742E-1,0E0,3.2140808E0,0E0,0E0,2.9335022E-1,1.9037273E1,0E0,0E0,0E0,0E0],"parents":[2147483647,0,0,1,1,2,2,4,4,6,6,9,9,10,10],"right_children":[2,4,6,-1,8,-1,10,-1,-1,12,14,-1,-1,-1,-1],"split_conditions":[9.2030396E1,9.195241E1,1.9915023E0,1.03933595E-1,2.571231E0,1.01320386E-1,1.0537861E2,6.153478E-2,-2.7165439E-3,2.0123377E0,9.402331E1,-2.2729477E-2,-1.0677655E-1,8.178455E-2,-1.0394352E-1],"split_indices":[0,0,3,0,3,0,1,0,0,3,0,0,0,0,0],"split_type":[0,0,0,0,0,0,0,0,0,0,0,0,0,0,0],"sum_hessian":[2.7290485E2,1.0789252E2,1.6501233E2,1.0477972E2,3.1128E0,2.7121038E1,1.3789128E2,1.1702167E0,1.9425832E0,1.07032234E2,3.0859049E1,1.03471E0,1.0599753E2,6.2276793E0,2.4631369E1],"tree_param":{"num_deleted":"0","num_feature":"6","num_nodes":"15","size_leaf_vector":"1"}},{"base_weights":[1.5819538E-2,1.0136924E0,-6.3746667E-1,1.0335499E-1,2.9312518E-1,1.00506E-1,-9.6508545E-1,6.280315E-2,-2.4581367E-2,-1.0524532E0,-6.388425E-1,-1.9802956E-2,1.6365655E-2,-2.168378E-2,-1.0590013E-1,7.902723E-2,-1.0279578E-1],"categories":[],"categories_nodes":[],"categories_segments":[],"categories_sizes":[],"default_left":[0,0,0,0,0,0,0,0,0,0,0,0,0,0,0,0,0],"id":22,"left_children":[1,3,5,-1,7,-1,9,-1,11,13,15,-1,-1,-1,-1,-1,-1],"loss_changes":[1.6375151E2,1.1190338E0,8.266896E1,0E0,4.475516E-1,0E0,2.9499893E0,0E0,1.3187309E-1,3.1040955E-1,1.715535E1,0E0,0E0,0E0,0E0,0E0,0E0],"parents":[2147483647,0,0,1,1,2,2,4,4,6,6,8,8,9,9,10,10],"right_children":[2,4,6,-1,8,-1,10,-1,12,14,16,-1,-1,-1,-1,-1,-1],"split_conditions":[9.2030396E1,9.195241E1,1.9915023E0,1.0335499E-1,1.68E2,1.00506E-1,1.0537861E2,6.280315E-2,1.76E2,2.0123377E0,9.402331E1,-1.9802956E-2,1.6365655E-2,-2.168378E-2,-1.0590013E-1,7.902723E-2,-1.0279578E-1],"split_indices":[0,0,3,0,5,0,1,0,5,3,0,0,0,0,0,0,0],"split_type":[0,0,0,0,0,0,0,0,0,0,0,0,0,0,0,0,0],"sum_hessian":[2.4920125E2,9.8378975E1,1.5082227E2,9.5317825E1,3.0611463E0,2.4736633E1,1.2608564E2,1.0147231E0,2.0464232E0,9.769656E1,2.8389074E1,1.0379796E0,1.0084436E0,1.0248863E0,9.667168E1,5.854851E0,2.2534224E1],"tree_param":{"num_deleted":"0","num_feature":"6","num_nodes":"17","size_leaf_vector":"1"}},{"base_weights":[1.6161842E-2,1.0064288E0,-6.310008E-1,1.0281723E-1,2.816798E-1,9.971217E-2,-9.555287E-1,5.891489E-2,-3.381614E-3,-1.0437837E0,-6.270477E-1,-2.0688256E-2,-1.05099835E-1,8.710171E-2,-9.8977216E-2],"categories":[],"categories_nodes":[],"categories_segments":[],"categories_sizes":[],"default_left":[0,0,0,0,0,0,0,0,0,0,0,0,0,0,0],"id":23,"left_children":[1,3,5,-1,7,-1,9,-1,-1,11,13,-1,-1,-1,-1],"loss_changes":[1.4707866E2,1.1396713E0,7.429611E1,0E0,4.0980476E-1,0E0,2.715622E0,0E0,0E0,3.267517E-1,1.5600815E1,0E0,0E0,0E0,0E0],"parents":[2147483647,0,0,1,1,2,2,4,4,6,6,9,9,10,10],"right_children":[2,4,6,-1,8,-1,10,-1,-1,12,14,-1,-1,-1,-1],"split_conditions":[9.2030396E1,9.195241E1,1.9915023E0,1.0281723E-1,2.571231E0,9.971217E-2,1.0537861E2,5.891489E-2,-3.381614E-3,2.0123377E0,9.397338E1,-2.0688256E-2,-1.05099835E-1,8.710171E-2,-9.8977216E-2],"split_indices":[0,0,3,0,3,0,1,0,0,3,0,0,0,0,0],"split_type":[0,0,0,0,0,0,0,0,0,0,0,0,0,0,0],"sum_hessian":[2.2750974E2,8.969945E1,1.3781029E2,8.668026E1,3.0191846E0,2.2559433E1,1.15250854E2,1.0897684E0,1.9294162E0,8.912695E1,2.6123896E1,1.015401E0,8.811156E1,4.8191814E0,2.1304714E1],"tree_param":{"num_deleted":"0","num_feature":"6","num_nodes":"15","size_leaf_vector":"1"}},{"base_weights":[1.662236E-2,9.993931E-1,-6.2474203E-1,1.02313876E-1,2.7082396E-1,9.8931246E-2,-9.464601E-1,5.0367117E-2,-1.161606E-2,-1.0356954E0,-6.151707E-1,-1.9740215E-2,-1.04364626E-1,7.555889E-2,-1.00682355E-1],"categories":[],"categories_nodes":[],"categories_segments":[],"categories_sizes":[],"default_left":[0,0,0,0,0,0,0,0,0,0,0,0,0,0,0],"id":24,"left_children":[1,3,5,-1,7,-1,9,-1,-1,11,13,-1,-1,-1,-1],"loss_changes":[1.3213232E2,1.1549454E0,6.681282E1,0E0,4.164762E-1,0E0,2.5050964E0,0E0,0E0,3.4233856E-1,1.4191775E1,0E0,0E0,0E0,0E0],"parents":[2147483647,0,0,1,1,2,2,4,4,6,6,9,9,10,10],"right_children":[2,4,6,-1,8,-1,10,-1,-1,12,14,-1,-1,-1,-1],"split_conditions":[9.2030396E1,9.195241E1,1.9915023E0,1.02313876E-1,1.74E2,9.8931246E-2,1.0537861E2,5.0367117E-2,-1.161606E-2,2.0123377E0,9.402331E1,-1.9740215E-2,-1.04364626E-1,7.555889E-2,-1.00682355E-1],"split_indices":[0,0,3,0,5,0,1,0,0,3,0,0,0,0,0],"split_type":[0,0,0,0,0,0,0,0,0,0,0,0,0,0,0],"sum_hessian":[2.0763876E2,8.177526E1,1.25863495E2,7.8802605E1,2.9726589E0,2.0573164E1,1.0529033E2,1.6676887E0,1.30497E0,8.127267E1,2.4017664E1,1.006254E0,8.026641E1,5.130836E0,1.8886827E1],"tree_param":{"num_deleted":"0","num_feature":"6","num_nodes":"15","size_leaf_vector":"1"}},{"base_weights":[1.6924277E-2,9.9208254E-1,-6.1868143E-1,1.0183906E-1,2.557311E-1,9.81562E-2,-9.376808E-1,5.6946635E-2,-5.087737E-3,-1.0280852E0,-6.034462E-1,-2.9349787E-2,-1.03679456E-1,8.415431E-2,-9.646914E-2],"categories":[],"categories_nodes":[],"categories_segments":[],"categories_sizes":[],"default_left":[0,0,0,0,0,0,0,0,0,0,0,0,0,0,0],"id":25,"left_children":[1,3,5,-1,7,-1,9,-1,-1,11,13,-1,-1,-1,-1],"loss_changes":[1.1870481E2,1.2034149E0,6.0115494E1,0E0,4.081641E-1,0E0,2.316574E0,0E0,0E0,1.7607117E-1,1.2877366E1,0E0,0E0,0E0,0E0],"parents":[2147483647,0,0,1,1,2,2,4,4,6,6,9,9,10,10],"right_children":[2,4,6,-1,8,-1,10,-1,-1,12,14,-1,-1,-1,-1],"split_conditions":[9.2030396E1,9.195241E1,1.9915023E0,1.0183906E-1,2.571231E0,9.81562E-2,1.0537861E2,5.6946635E-2,-5.087737E-3,2.031457E0,9.397338E1,-2.9349787E-2,-1.03679456E-1,8.415431E-2,-9.646914E-2],"split_indices":[0,0,3,0,3,0,1,0,0,3,0,0,0,0,0],"split_type":[0,0,0,0,0,0,0,0,0,0,0,0,0,0,0],"sum_hessian":[1.8952588E2,7.45654E1,1.1496049E2,7.162345E1,2.9419465E0,1.876248E1,9.6198006E1,1.0303447E0,1.9116019E0,7.408375E1,2.2114256E1,1.2746347E0,7.280911E1,4.1569195E0,1.7957336E1],"tree_param":{"num_deleted":"0","num_feature":"6","num_nodes":"15","size_leaf_vector":"1"}},{"base_weights":[1.74048E-2,9.851741E-1,-6.1268425E-1,1.0138744E-1,2.4625738E-1,9.7380556E-2,-9.2913276E-1,4.766637E-2,-1.247285E-2,-1.0208006E0,-5.9135234E-1,-2.7970428E-2,-1.030459E-1,7.2182976E-2,-9.870096E-2],"categories":[],"categories_nodes":[],"categories_segments":[],"categories_sizes":[],"default_left":[0,0,0,0,0,0,0,0,0,0,0,0,0,0,0],"id":26,"left_children":[1,3,5,-1,7,-1,9,-1,-1,11,13,-1,-1,-1,-1],"loss_changes":[1.0668794E2,1.2133102E0,5.411381E1,0E0,3.928259E-1,0E0,2.1481476E0,0E0,0E0,2.0227051E-1,1.1803823E1,0E0,0E0,0E0,0E0],"parents":[2147483647,0,0,1,1,2,2,4,4,6,6,9,9,10,10],"right_children":[2,4,6,-1,8,-1,10,-1,-1,12,14,-1,-1,-1,-1],"split_conditions":[9.2030396E1,9.195241E1,1.9915023E0,1.0138744E-1,1.74E2,9.7380556E-2,1.0537861E2,4.766637E-2,-1.247285E-2,2.031457E0,9.402331E1,-2.7970428E-2,-1.030459E-1,7.2182976E-2,-9.870096E-2],"split_indices":[0,0,3,0,5,0,1,0,0,3,0,0,0,0,0],"split_type":[0,0,0,0,0,0,0,0,0,0,0,0,0,0,0],"sum_hessian":[1.7297127E2,6.798614E1,1.0498513E2,6.508602E1,2.9001176E0,1.7113026E1,8.787211E1,1.613298E0,1.2868197E0,6.75249E1,2.0347204E1,1.254134E0,6.6270775E1,4.52023E0,1.5826974E1],"tree_param":{"num_deleted":"0","num_feature":"6","num_nodes":"15","size_leaf_vector":"1"}},{"base_weights":[1.7688747E-2,9.778125E-1,-6.0680777E-1,1.0095407E-1,2.3255329E-1,9.659832E-2,-9.2074245E-1,4.5390245E-2,-1.1724587E-2,-1.0138121E0,-5.795007E-1,-2.6657218E-2,-1.0245132E-1,6.9360696E-2,-9.771865E-2],"categories":[],"categories_nodes":[],"categories_segments":[],"categories_sizes":[],"default_left":[0,0,0,0,0,0,0,0,0,0,0,0,0,0,0],"id":27,"left_children":[1,3,5,-1,7,-1,9,-1,-1,11,13,-1,-1,-1,-1],"loss_changes":[9.58739E1,1.2551079E0,4.8734116E1,0E0,3.5303771E-1,0E0,1.9941559E0,0E0,0E0,2.2693634E-1,1.0679083E1,0E0,0E0,0E0,0E0],"parents":[2147483647,0,0,1,1,2,2,4,4,6,6,9,9,10,10],"right_children":[2,4,6,-1,8,-1,10,-1,-1,12,14,-1,-1,-1,-1],"split_conditions":[9.2030396E1,9.195241E1,1.9915023E0,1.0095407E-1,1.74E2,9.659832E-2,1.0537861E2,4.5390245E-2,-1.1724587E-2,2.031457E0,9.402331E1,-2.6657218E-2,-1.0245132E-1,6.9360696E-2,-9.771865E-2],"split_indices":[0,0,3,0,5,0,1,0,0,3,0,0,0,0,0],"split_type":[0,0,0,0,0,0,0,0,0,0,0,0,0,0,0],"sum_hessian":[1.5790846E2,6.200853E1,9.589994E1,5.913628E1,2.87225E0,1.5611315E1,8.028862E1,1.5768362E0,1.2954139E0,6.1534794E1,1.875383E1,1.2346121E0,6.0300182E1,4.286712E0,1.4467117E1],"tree_param":{"num_deleted":"0","num_feature":"6","num_nodes":"15","size_leaf_vector":"1"}},{"base_weights":[1.7987184E-2,9.7033244E-1,-6.009285E-1,1.005344E-1,2.1973322E-1,9.580396E-2,-9.1241616E-1,4.150492E-2,-1.3663733E-2,-1.0070423E0,-5.674726E-1,-2.5406778E-2,-1.01888716E-1,7.984653E-2,-9.297522E-2],"categories":[],"categories_nodes":[],"categories_segments":[],"categories_sizes":[],"default_left":[0,0,0,0,0,0,0,0,0,0,0,0,0,0,0],"id":28,"left_children":[1,3,5,-1,7,-1,9,-1,-1,11,13,-1,-1,-1,-1],"loss_changes":[8.615824E1,1.2920227E0,4.3905296E1,0E0,3.2436892E-1,0E0,1.8560104E0,0E0,0E0,2.501297E-1,9.798423E0,0E0,0E0,0E0,0E0],"parents":[2147483647,0,0,1,1,2,2,4,4,6,6,9,9,10,10],"right_children":[2,4,6,-1,8,-1,10,-1,-1,12,14,-1,-1,-1,-1],"split_conditions":[9.2030396E1,9.195241E1,1.9915023E0,1.005344E-1,3.789303E0,9.580396E-2,1.0537861E2,4.150492E-2,-1.3663733E-2,2.031457E0,9.397338E1,-2.5406778E-2,-1.01888716E-1,7.984653E-2,-9.297522E-2],"split_indices":[0,0,3,0,3,0,1,0,0,3,0,0,0,0,0],"split_type":[0,0,0,0,0,0,0,0,0,0,0,0,0,0,0],"sum_hessian":[1.44185E2,5.657045E1,8.761455E1,5.3725063E1,2.8453882E0,1.4244816E1,7.336973E1,1.7316608E0,1.1137273E0,5.606919E1,1.7300539E1,1.2160304E0,5.485316E1,3.374255E0,1.3926285E1],"tree_param":{"num_deleted":"0","num_feature":"6","num_nodes":"15","size_leaf_vector":"1"}},{"base_weights":[1.844835E-2,9.6288097E-1,-5.9489876E-1,1.0012408E-1,2.0749626E-1,9.4992414E-2,-9.040838E-1,4.2896356E-2,-1.2920158E-2,-1.0004196E0,-5.5470425E-1,-2.4215931E-2,-1.01351716E-1,6.608588E-2,-9.5801994E-2],"categories":[],"categories_nodes":[],"categories_segments":[],"categories_sizes":[],"default_left":[0,0,0,0,0,0,0,0,0,0,0,0,0,0,0],"id":29,"left_children":[1,3,5,-1,7,-1,9,-1,-1,11,13,-1,-1,-1,-1],"loss_changes":[7.741072E1,1.3166733E0,3.9565453E1,0E0,3.3907056E-1,0E0,1.7350006E0,0E0,0E0,2.718506E-1,8.94278E0,0E0,0E0,0E0,0E0],"parents":[2147483647,0,0,1,1,2,2,4,4,6,6,9,9,10,10],"right_children":[2,4,6,-1,8,-1,10,-1,-1,12,14,-1,-1,-1,-1],"split_conditions":[9.2030396E1,9.195241E1,1.9915023E0,1.0012408E-1,1.74E2,9.4992414E-2,1.0537861E2,4.2896356E-2,-1.2920158E-2,2.031457E0,9.402331E1,-2.4215931E-2,-1.01351716E-1,6.608588E-2,-9.5801994E-2],"split_indices":[0,0,3,0,5,0,1,0,0,3,0,0,0,0,0],"split_type":[0,0,0,0,0,0,0,0,0,0,0,0,0,0,0],"sum_hessian":[1.3164723E2,5.1609295E1,8.003793E1,4.8805393E1,2.8039038E0,1.3001989E1,6.703594E1,1.5260764E0,1.2778274E0,5.108629E1,1.5949656E1,1.1983508E0,4.9887936E1,3.8144934E0,1.2135161E1],"tree_param":{"num_deleted":"0","num_feature":"6","num_nodes":"15","size_leaf_vector":"1"}},{"base_weights":[1.8779434E-2,9.5497584E-1,-5.8891E-1,9.97191E-2,1.9605282E-1,9.415898E-2,-8.957565E-1,3.9235707E-2,-1.4618586E-2,-9.9387777E-1,-5.423942E-1,-2.3081716E-2,-1.0083448E-1,7.690353E-2,-9.041684E-2],"categories":[],"categories_nodes":[],"categories_segments":[],"categories_sizes":[],"default_left":[0,0,0,0,0,0,0,0,0,0,0,0,0,0,0],"id":30,"left_children":[1,3,5,-1,7,-1,9,-1,-1,11,13,-1,-1,-1,-1],"loss_changes":[6.955592E1,1.3460159E0,3.566944E1,0E0,3.1131506E-1,0E0,1.6204758E0,0E0,0E0,2.9213715E-1,8.161945E0,0E0,0E0,0E0,0E0],"parents":[2147483647,0,0,1,1,2,2,4,4,6,6,9,9,10,10],"right_children":[2,4,6,-1,8,-1,10,-1,-1,12,14,-1,-1,-1,-1],"split_conditions":[9.2030396E1,9.195241E1,1.9915023E0,9.97191E-2,3.789303E0,9.415898E-2,1.0537861E2,3.9235707E-2,-1.4618586E-2,2.031457E0,9.397338E1,-2.3081716E-2,-1.0083448E-1,7.690353E-2,-9.041684E-2],"split_indices":[0,0,3,0,3,0,1,0,0,3,0,0,0,0,0],"split_type":[0,0,0,0,0,0,0,0,0,0,0,0,0,0,0],"sum_hessian":[1.20271774E2,4.711527E1,7.31565E1,4.433517E1,2.7800987E0,1.1872054E1,6.1284447E1,1.6736621E0,1.1064366E0,4.6546764E1,1.4737684E1,1.1815345E0,4.536523E1,2.943128E0,1.1794556E1],"tree_param":{"num_deleted":"0","num_feature":"6","num_nodes":"15","size_leaf_vector":"1"}},{"base_weights":[1.9311508E-2,9.470125E-1,-5.8263355E-1,9.931557E-2,1.8503985E-1,9.329935E-2,-8.8723546E-1,4.0620565E-2,-1.3914383E-2,-9.8735404E-1,-5.2904E-1,-2.2001326E-2,-1.0033158E-1,6.294958E-2,-9.386303E-2],"categories":[],"categories_nodes":[],"categories_segments":[],"categories_sizes":[],"default_left":[0,0,0,0,0,0,0,0,0,0,0,0,0,0,0],"id":31,"left_children":[1,3,5,-1,7,-1,9,-1,-1,11,13,-1,-1,-1,-1],"loss_changes":[6.247426E1,1.3638687E0,3.2161034E1,0E0,3.2484162E-1,0E0,1.5226936E0,0E0,0E0,3.109932E-1,7.524383E0,0E0,0E0,0E0,0E0],"parents":[2147483647,0,0,1,1,2,2,4,4,6,6,9,9,10,10],"right_children":[2,4,6,-1,8,-1,10,-1,-1,12,14,-1,-1,-1,-1],"split_conditions":[9.2030396E1,9.195241E1,1.9915023E0,9.931557E-2,1.74E2,9.329935E-2,1.0537861E2,4.0620565E-2,-1.3914383E-2,2.031457E0,9.402331E1,-2.2001326E-2,-1.0033158E-1,6.294958E-2,-9.386303E-2],"split_indices":[0,0,3,0,5,0,1,0,0,3,0,0,0,0,0],"split_type":[0,0,0,0,0,0,0,0,0,0,0,0,0,0,0],"sum_hessian":[1.0988776E2,4.3017353E1,6.68704E1,4.0274998E1,2.7423542E0,1.0845043E1,5.602536E1,1.4797932E0,1.2625608E0,4.2413868E1,1.3611491E1,1.165544E0,4.1248325E1,3.4150505E0,1.0196441E1],"tree_param":{"num_deleted":"0","num_feature":"6","num_nodes":"15","size_leaf_vector":"1"}},{"base_weights":[1.9676544E-2,9.3846434E-1,-5.763844E-1,9.890974E-2,1.7483917E-1,9.240981E-2,-8.786854E-1,3.7161622E-2,-1.5406053E-2,-9.807896E-1,-5.164263E-1,-2.0972118E-2,-9.983797E-2,6.017037E-2,-9.284514E-2],"categories":[],"categories_nodes":[],"categories_segments":[],"categories_sizes":[],"default_left":[0,0,0,0,0,0,0,0,0,0,0,0,0,0,0],"id":32,"left_children":[1,3,5,-1,7,-1,9,-1,-1,11,13,-1,-1,-1,-1],"loss_changes":[5.611505E1,1.3856201E0,2.901093E1,0E0,2.9809278E-1,0E0,1.4263268E0,0E0,0E0,3.2844162E-1,6.8250732E0,0E0,0E0,0E0,0E0],"parents":[2147483647,0,0,1,1,2,2,4,4,6,6,9,9,10,10],"right_children":[2,4,6,-1,8,-1,10,-1,-1,12,14,-1,-1,-1,-1],"split_conditions":[9.2030396E1,9.195241E1,1.9915023E0,9.890974E-2,3.789303E0,9.240981E-2,1.0537861E2,3.7161622E-2,-1.5406053E-2,2.031457E0,9.402331E1,-2.0972118E-2,-9.983797E-2,6.017037E-2,-9.284514E-2],"split_indices":[0,0,3,0,3,0,1,0,0,3,0,0,0,0,0],"split_type":[0,0,0,0,0,0,0,0,0,0,0,0,0,0,0],"sum_hessian":[1.004768E2,3.9309464E1,6.1167336E1,3.6588177E1,2.721288E0,9.911977E0,5.125536E1,1.6213657E0,1.0999222E0,3.865333E1,1.2602024E1,1.150342E0,3.750299E1,3.269389E0,9.332636E0],"tree_param":{"num_deleted":"0","num_feature":"6","num_nodes":"15","size_leaf_vector":"1"}},{"base_weights":[2.0014714E-2,9.2978185E-1,-5.6994444E-1,9.849809E-2,1.6493627E-1,9.1486774E-2,-8.699137E-1,3.8540337E-2,-1.4731357E-2,-9.741283E-1,-5.036171E-1,-1.9991586E-2,-9.934889E-2,7.265269E-2,-8.668585E-2],"categories":[],"categories_nodes":[],"categories_segments":[],"categories_sizes":[],"default_left":[0,0,0,0,0,0,0,0,0,0,0,0,0,0,0],"id":33,"left_children":[1,3,5,-1,7,-1,9,-1,-1,11,13,-1,-1,-1,-1],"loss_changes":[5.039709E1,1.3966312E0,2.6175184E1,0E0,3.1058365E-1,0E0,1.3385658E0,0E0,0E0,3.4449387E-1,6.297324E0,0E0,0E0,0E0,0E0],"parents":[2147483647,0,0,1,1,2,2,4,4,6,6,9,9,10,10],"right_children":[2,4,6,-1,8,-1,10,-1,-1,12,14,-1,-1,-1,-1],"split_conditions":[9.2030396E1,9.195241E1,1.9915023E0,9.849809E-2,1.74E2,9.1486774E-2,1.0537861E2,3.8540337E-2,-1.4731357E-2,2.031457E0,9.397338E1,-1.9991586E-2,-9.934889E-2,7.265269E-2,-8.668585E-2],"split_indices":[0,0,3,0,5,0,1,0,0,3,0,0,0,0,0],"split_type":[0,0,0,0,0,0,0,0,0,0,0,0,0,0,0],"sum_hessian":[9.191001E1,3.5928776E1,5.598123E1,3.3241886E1,2.6868904E0,9.064275E0,4.6916958E1,1.4375882E0,1.2493021E0,3.523336E1,1.1683598E1,1.1358918E0,3.409747E1,2.4354944E0,9.248103E0],"tree_param":{"num_deleted":"0","num_feature":"6","num_nodes":"15","size_leaf_vector":"1"}},{"base_weights":[2.0693177E-2,9.2039174E-1,-5.6301826E-1,9.807705E-2,1.5585636E-1,9.052742E-2,-8.6070573E-1,3.52639E-2,-1.6046172E-2,-9.6731657E-1,-4.893389E-1,-1.9057378E-2,-9.8859794E-2,5.723673E-2,-9.079613E-2],"categories":[],"categories_nodes":[],"categories_segments":[],"categories_sizes":[],"default_left":[0,0,0,0,0,0,0,0,0,0,0,0,0,0,0],"id":34,"left_children":[1,3,5,-1,7,-1,9,-1,-1,11,13,-1,-1,-1,-1],"loss_changes":[4.5219757E1,1.4107952E0,2.3615421E1,0E0,2.8491953E-1,0E0,1.2667694E0,0E0,0E0,3.5915375E-1,5.776226E0,0E0,0E0,0E0,0E0],"parents":[2147483647,0,0,1,1,2,2,4,4,6,6,9,9,10,10],"right_children":[2,4,6,-1,8,-1,10,-1,-1,12,14,-1,-1,-1,-1],"split_conditions":[9.2030396E1,9.195241E1,1.9915023E0,9.807705E-2,3.789303E0,9.052742E-2,1.0537861E2,3.52639E-2,-1.6046172E-2,2.031457E0,9.402331E1,-1.9057378E-2,-9.8859794E-2,5.723673E-2,-9.079613E-2],"split_indices":[0,0,3,0,3,0,1,0,0,3,0,0,0,0,0],"split_type":[0,0,0,0,0,0,0,0,0,0,0,0,0,0,0],"sum_hessian":[8.411918E1,3.2873344E1,5.1245834E1,3.020508E1,2.668265E0,8.29435E0,4.2951485E1,1.5741541E0,1.0941111E0,3.2124527E1,1.082696E1,1.1221579E0,3.1002369E1,2.9578989E0,7.8690605E0],"tree_param":{"num_deleted":"0","num_feature":"6","num_nodes":"15","size_leaf_vector":"1"}},{"base_weights":[2.1058856E-2,9.7643316E-2,-5.1658857E-1,9.04608E-2,-8.044931E-1,-3.945668E-1,-9.591356E-1,-7.8325614E-2,5.7292163E-2,-1.2448361E-2,-9.8434985E-2],"categories":[],"categories_nodes":[],"categories_segments":[],"categories_sizes":[],"default_left":[0,0,0,0,0,0,0,0,0,0,0],"id":35,"left_children":[1,-1,3,-1,5,7,9,-1,-1,-1,-1],"loss_changes":[4.0592384E1,0E0,2.142933E1,0E0,2.3221016E0,5.4757185E0,5.1372147E-1,0E0,0E0,0E0,0E0],"parents":[2147483647,0,0,2,2,4,4,5,5,6,6],"right_children":[2,-1,4,-1,6,8,10,-1,-1,-1,-1],"split_conditions":[9.195241E1,9.7643316E-2,1.9915023E0,9.04608E-2,9.402331E1,1.03771286E2,2.0539336E0,-7.8325614E-2,5.7292163E-2,-1.2448361E-2,-9.8434985E-2],"split_indices":[0,0,3,0,0,1,3,0,0,0,0],"split_type":[0,0,0,0,0,0,0,0,0,0,0],"sum_hessian":[7.704461E1,2.7450405E1,4.9594204E1,7.993497E0,4.1600708E1,1.2367749E1,2.923296E1,8.95892E0,3.4088302E0,1.0313042E0,2.8201654E1],"tree_param":{"num_deleted":"0","num_feature":"6","num_nodes":"11","size_leaf_vector":"1"}},{"base_weights":[2.1568008E-2,9.0317434E-1,-5.504062E-1,9.719347E-2,1.6960183E-1,8.847933E-2,-8.4255433E-1,-1.5969573E-2,3.849018E-2,-9.5335436E-1,-4.6145526E-1,-1.6906256E-2,-9.78957E-2,6.844919E-2,-8.260434E-2],"categories":[],"categories_nodes":[],"categories_segments":[],"categories_sizes":[],"default_left":[0,0,0,0,0,0,0,0,0,0,0,0,0,0,0],"id":36,"left_children":[1,3,5,-1,7,-1,9,-1,-1,11,13,-1,-1,-1,-1],"loss_changes":[3.668221E1,1.2785454E0,1.9254612E1,0E0,3.2121867E-1,0E0,1.1304493E0,0E0,0E0,3.9421844E-1,4.8750715E0,0E0,0E0,0E0,0E0],"parents":[2147483647,0,0,1,1,2,2,4,4,6,6,9,9,10,10],"right_children":[2,4,6,-1,8,-1,10,-1,-1,12,14,-1,-1,-1,-1],"split_conditions":[9.2030396E1,9.195241E1,1.9915023E0,9.719347E-2,5.42452E1,8.847933E-2,1.0537861E2,-1.5969573E-2,3.849018E-2,2.031457E0,9.397338E1,-1.6906256E-2,-9.78957E-2,6.844919E-2,-8.260434E-2],"split_indices":[0,0,3,0,2,0,1,0,0,3,0,0,0,0,0],"split_type":[0,0,0,0,0,0,0,0,0,0,0,0,0,0,0],"sum_hessian":[7.075937E1,2.7615486E1,4.3143883E1,2.4951736E1,2.6637487E0,6.9538755E0,3.6190006E1,1.155182E0,1.5085667E0,2.6874868E1,9.315137E0,1.089933E0,2.5784935E1,2.0365524E0,7.278585E0],"tree_param":{"num_deleted":"0","num_feature":"6","num_nodes":"15","size_leaf_vector":"1"}},{"base_weights":[2.2417093E-2,8.923911E-1,-5.425515E-1,9.6724264E-2,1.6004081E-1,8.7397866E-2,-8.3227724E-1,-1.5053269E-2,3.6676314E-2,-9.458087E-1,-4.463618E-1,-1.6117595E-2,-9.738228E-2,5.174159E-2,-8.738329E-2],"categories":[],"categories_nodes":[],"categories_segments":[],"categories_sizes":[],"default_left":[0,0,0,0,0,0,0,0,0,0,0,0,0,0,0],"id":37,"left_children":[1,3,5,-1,7,-1,9,-1,-1,11,13,-1,-1,-1,-1],"loss_changes":[3.287573E1,1.28829E0,1.7380436E1,0E0,2.8886873E-1,0E0,1.0762177E0,0E0,0E0,4.0424347E-1,4.4350977E0,0E0,0E0,0E0,0E0],"parents":[2147483647,0,0,1,1,2,2,4,4,6,6,9,9,10,10],"right_children":[2,4,6,-1,8,-1,10,-1,-1,12,14,-1,-1,-1,-1],"split_conditions":[9.2030396E1,9.195241E1,1.9915023E0,9.6724264E-2,5.42452E1,8.7397866E-2,1.0537861E2,-1.5053269E-2,3.6676314E-2,2.031457E0,9.402331E1,-1.6117595E-2,-9.738228E-2,5.174159E-2,-8.738329E-2],"split_indices":[0,0,3,0,2,0,1,0,0,3,0,0,0,0,0],"split_type":[0,0,0,0,0,0,0,0,0,0,0,0,0,0,0],"sum_hessian":[6.490241E1,2.5325335E1,3.9577076E1,2.2685928E1,2.6394062E0,6.377851E0,3.3199226E1,1.1633841E0,1.4760221E0,2.4531536E1,8.667689E0,1.078472E0,2.3453064E1,2.598559E0,6.0691304E0],"tree_param":{"num_deleted":"0","num_feature":"6","num_nodes":"15","size_leaf_vector":"1"}},{"base_weights":[2.2882348E-2,8.8103193E-1,-5.348148E-1,9.62325E-2,1.5111321E-1,8.627356E-2,-8.2198614E-1,3.6820777E-2,-1.490664E-2,-9.379237E-1,-4.3318447E-1,-1.5366033E-2,-9.685283E-2,6.564335E-2,-7.949461E-2],"categories":[],"categories_nodes":[],"categories_segments":[],"categories_sizes":[],"default_left":[0,0,0,0,0,0,0,0,0,0,0,0,0,0,0],"id":38,"left_children":[1,3,5,-1,7,-1,9,-1,-1,11,13,-1,-1,-1,-1],"loss_changes":[2.9473597E1,1.2933826E0,1.5699928E1,0E0,2.90546E-1,0E0,1.013504E0,0E0,0E0,4.1292572E-1,4.106167E0,0E0,0E0,0E0,0E0],"parents":[2147483647,0,0,1,1,2,2,4,4,6,6,9,9,10,10],"right_children":[2,4,6,-1,8,-1,10,-1,-1,12,14,-1,-1,-1,-1],"split_conditions":[9.2030396E1,9.195241E1,1.9915023E0,9.62325E-2,1.74E2,8.627356E-2,1.0537861E2,3.6820777E-2,-1.490664E-2,2.031457E0,9.397338E1,-1.5366033E-2,-9.685283E-2,6.564335E-2,-7.949461E-2],"split_indices":[0,0,3,0,5,0,1,0,0,3,0,0,0,0,0],"split_type":[0,0,0,0,0,0,0,0,0,0,0,0,0,0,0],"sum_hessian":[5.9600002E1,2.3247866E1,3.6352135E1,2.063166E1,2.6162064E0,5.8548117E0,3.0497324E1,1.3866992E0,1.2295071E0,2.2404219E1,8.093105E0,1.067581E0,2.1336637E1,1.8142068E0,6.2788982E0],"tree_param":{"num_deleted":"0","num_feature":"6","num_nodes":"15","size_leaf_vector":"1"}},{"base_weights":[2.385651E-2,9.571501E-2,-4.7537264E-1,8.6492114E-2,-7.498576E-1,-3.2432032E-1,-9.282344E-1,-7.104425E-2,5.367699E-2,-1.2864276E-2,-9.702225E-2],"categories":[],"categories_nodes":[],"categories_segments":[],"categories_sizes":[],"default_left":[0,0,0,0,0,0,0,0,0,0,0],"id":39,"left_children":[1,-1,3,-1,5,7,9,-1,-1,-1,-1],"loss_changes":[2.6442286E1,0E0,1.4262729E1,0E0,2.0711117E0,3.9614353E0,5.9646606E-1,0E0,0E0,0E0,0E0],"parents":[2147483647,0,0,2,2,4,4,5,5,6,6],"right_children":[2,-1,4,-1,6,8,10,-1,-1,-1,-1],"split_conditions":[9.195241E1,9.571501E-2,1.9915023E0,8.6492114E-2,9.402331E1,1.03771286E2,6.3117966E1,-7.104425E-2,5.367699E-2,-1.2864276E-2,-9.702225E-2],"split_indices":[0,0,3,0,0,1,1,0,0,0,0],"split_type":[0,0,0,0,0,0,0,0,0,0,0],"sum_hessian":[5.4775394E1,1.8769373E1,3.600602E1,5.7547665E0,3.0251255E1,9.767646E0,2.0483608E1,6.8644857E0,2.9031599E0,1.2247187E0,1.925889E1],"tree_param":{"num_deleted":"0","num_feature":"6","num_nodes":"11","size_leaf_vector":"1"}},{"base_weights":[2.4495885E-2,8.598106E-1,-5.1957685E-1,9.516868E-2,1.638481E-1,8.387515E-2,-8.0038244E-1,-1.5701307E-2,3.7433397E-2,-8.762843E-1,-2.2795486E-1,-1.1053038E-2,-9.057187E-2,4.9507435E-2,-6.9252424E-2],"categories":[],"categories_nodes":[],"categories_segments":[],"categories_sizes":[],"default_left":[0,0,0,0,0,0,0,0,0,0,0,0,0,0,0],"id":40,"left_children":[1,3,5,-1,7,-1,9,-1,-1,11,13,-1,-1,-1,-1],"loss_changes":[2.3868032E1,1.1679144E0,1.281267E1,0E0,3.0342045E-1,0E0,9.685726E-1,0E0,0E0,4.2709732E-1,1.8542866E0,0E0,0E0,0E0,0E0],"parents":[2147483647,0,0,1,1,2,2,4,4,6,6,9,9,10,10],"right_children":[2,4,6,-1,8,-1,10,-1,-1,12,14,-1,-1,-1,-1],"split_conditions":[9.2030396E1,9.195241E1,1.9915023E0,9.516868E-2,5.42452E1,8.387515E-2,1.125218E2,-1.5701307E-2,3.7433397E-2,2.031457E0,9.402331E1,-1.1053038E-2,-9.057187E-2,4.9507435E-2,-6.9252424E-2],"split_indices":[0,0,3,0,2,0,1,0,0,3,0,0,0,0,0],"split_type":[0,0,0,0,0,0,0,0,0,0,0,0,0,0,0],"sum_hessian":[5.053518E1,1.970373E1,3.0831451E1,1.708133E1,2.6224005E0,4.941449E0,2.5890001E1,1.1394644E0,1.4829361E0,2.2390305E1,3.4996965E0,1.0048063E0,2.1385498E1,1.3433385E0,2.156358E0],"tree_param":{"num_deleted":"0","num_feature":"6","num_nodes":"15","size_leaf_vector":"1"}},{"base_weights":[2.568369E-2,8.46601E-1,-5.0649923E-1,9.459059E-2,1.5464573E-1,8.2622305E-2,-7.8168505E-1,-1.4809254E-2,3.5669476E-2,-9.1209966E-1,-3.6840764E-1,-1.8021742E-2,-9.603648E-2,6.31937E-2,-7.4511044E-2],"categories":[],"categories_nodes":[],"categories_segments":[],"categories_sizes":[],"default_left":[0,0,0,0,0,0,0,0,0,0,0,0,0,0,0],"id":41,"left_children":[1,3,5,-1,7,-1,9,-1,-1,11,13,-1,-1,-1,-1],"loss_changes":[2.1284922E1,1.1696291E0,1.1497358E1,0E0,2.7295855E-1,0E0,1.0134869E0,0E0,0E0,4.753027E-1,3.3662767E0,0E0,0E0,0E0,0E0],"parents":[2147483647,0,0,1,1,2,2,4,4,6,6,9,9,10,10],"right_children":[2,4,6,-1,8,-1,10,-1,-1,12,14,-1,-1,-1,-1],"split_conditions":[9.2030396E1,9.195241E1,1.9915023E0,9.459059E-2,5.42452E1,8.2622305E-2,1.0537861E2,-1.4809254E-2,3.5669476E-2,6.3117966E1,9.397338E1,-1.8021742E-2,-9.603648E-2,6.31937E-2,-7.4511044E-2],"split_indices":[0,0,3,0,2,0,1,0,0,1,0,0,0,0,0],"split_type":[0,0,0,0,0,0,0,0,0,0,0,0,0,0,0],"sum_hessian":[4.673898E1,1.8150368E1,2.8588612E1,1.5551513E1,2.5988555E0,4.550101E0,2.4038511E1,1.1471223E0,1.4517331E0,1.7354956E1,6.683555E0,1.3665646E0,1.5988391E1,1.6429932E0,5.040562E0],"tree_param":{"num_deleted":"0","num_feature":"6","num_nodes":"15","size_leaf_vector":"1"}},{"base_weights":[2.6746104E-2,9.397768E-2,-4.3636805E-1,8.3130114E-2,-6.9605E-1,-2.6076669E-1,-8.9982635E-1,-6.516307E-2,5.2300837E-2,-7.534943E-3,-9.5262654E-2],"categories":[],"categories_nodes":[],"categories_segments":[],"categories_sizes":[],"default_left":[0,0,0,0,0,0,0,0,0,0,0],"id":42,"left_children":[1,-1,3,-1,5,7,9,-1,-1,-1,-1],"loss_changes":[1.9065742E1,0E0,1.0439634E1,0E0,2.0189276E0,3.25401E0,6.637955E-1,0E0,0E0,0E0,0E0],"parents":[2147483647,0,0,2,2,4,4,5,5,6,6],"right_children":[2,-1,4,-1,6,8,10,-1,-1,-1,-1],"split_conditions":[9.195241E1,9.397768E-2,1.9915023E0,8.3130114E-2,9.402331E1,1.03771286E2,6.3117966E1,-6.516307E-2,5.2300837E-2,-7.534943E-3,-9.5262654E-2],"split_indices":[0,0,3,0,0,1,1,0,0,0,0],"split_type":[0,0,0,0,0,0,0,0,0,0,0],"sum_hessian":[4.3120155E1,1.4164854E1,2.89553E1,4.5487566E0,2.4406544E1,8.509409E0,1.5897134E1,5.790381E0,2.7190285E0,1.1028682E0,1.4794266E1],"tree_param":{"num_deleted":"0","num_feature":"6","num_nodes":"11","size_leaf_vector":"1"}},{"base_weights":[2.7623413E-2,8.2254785E-1,-4.89305E-1,9.3327336E-2,1.6541515E-1,7.051978E-1,-7.8865135E-1,-1.4680226E-2,3.677791E-2,8.406384E-2,1.3441155E-2,-9.418749E-2,-3.3614317E-1,6.037566E-2,-7.071058E-2],"categories":[],"categories_nodes":[],"categories_segments":[],"categories_sizes":[],"default_left":[0,0,0,0,0,0,0,0,0,0,0,0,0,0,0],"id":43,"left_children":[1,3,5,-1,7,9,11,-1,-1,-1,-1,-1,13,-1,-1],"loss_changes":[1.7223867E1,1.0464468E0,9.650027E0,0E0,2.8114444E-1,3.2180452E-1,1.1261292E0,0E0,0E0,0E0,0E0,0E0,2.8043094E0,0E0,0E0],"parents":[2147483647,0,0,1,1,2,2,4,4,5,5,6,6,12,12],"right_children":[2,4,6,-1,8,10,12,-1,-1,-1,-1,-1,14,-1,-1],"split_conditions":[9.2030396E1,9.195241E1,2.0123377E0,9.3327336E-2,5.42452E1,9.807765E1,1.0537861E2,-1.4680226E-2,3.677791E-2,8.406384E-2,1.3441155E-2,-9.418749E-2,9.397338E1,6.037566E-2,-7.071058E-2],"split_indices":[0,0,3,0,2,0,1,0,0,0,0,0,0,0,0],"split_type":[0,0,0,0,0,0,0,0,0,0,0,0,0,0,0],"sum_hessian":[3.9936028E1,1.5503605E1,2.4432423E1,1.2908353E1,2.595252E0,4.6242323E0,1.9808191E1,1.1285818E0,1.4666702E0,3.3552904E0,1.2689419E0,1.3989693E1,5.818498E0,1.4689957E0,4.3495026E0],"tree_param":{"num_deleted":"0","num_feature":"6","num_nodes":"15","size_leaf_vector":"1"}},{"base_weights":[2.9625477E-2,8.0745625E-1,-4.7681507E-1,9.263708E-2,1.5621524E-1,6.818253E-1,-7.769361E-1,-1.3855742E-2,3.504489E-2,8.204215E-2,1.2730558E-2,-3.1455207E-1,-9.356228E-2,-7.7724345E-2,4.4603202E-2],"categories":[],"categories_nodes":[],"categories_segments":[],"categories_sizes":[],"default_left":[0,0,0,0,0,0,0,0,0,0,0,0,0,0,0],"id":44,"left_children":[1,3,5,-1,7,9,11,-1,-1,-1,-1,13,-1,-1,-1],"loss_changes":[1.5339595E1,1.043375E0,8.743652E0,0E0,2.5305036E-1,3.099842E-1,1.1166105E0,0E0,0E0,0E0,0E0,2.6058238E0,0E0,0E0,0E0],"parents":[2147483647,0,0,1,1,2,2,4,4,5,5,6,6,11,11],"right_children":[2,4,6,-1,8,10,12,-1,-1,-1,-1,14,-1,-1,-1],"split_conditions":[9.2030396E1,9.195241E1,2.0123377E0,9.263708E-2,5.42452E1,9.807765E1,9.402331E1,-1.3855742E-2,3.504489E-2,8.204215E-2,1.2730558E-2,1.05076385E2,-9.356228E-2,-7.7724345E-2,4.4603202E-2],"split_indices":[0,0,3,0,2,0,0,0,0,0,0,1,0,0,0],"split_type":[0,0,0,0,0,0,0,0,0,0,0,0,0,0,0],"sum_hessian":[3.6963024E1,1.4341641E1,2.2621382E1,1.1770006E1,2.5716345E0,4.39239E0,1.8228992E1,1.1353108E0,1.4363236E0,3.13045E0,1.2619396E0,5.419572E0,1.2809421E1,3.356056E0,2.0635161E0],"tree_param":{"num_deleted":"0","num_feature":"6","num_nodes":"15","size_leaf_vector":"1"}},{"base_weights":[3.0879654E-2,9.19041E-2,-3.95206E-1,7.9868235E-2,-6.4681613E-1,-2.233251E-1,-8.682077E-1,-5.9865493E-2,4.8766267E-2,-3.4646478E-3,-9.333307E-2],"categories":[],"categories_nodes":[],"categories_segments":[],"categories_sizes":[],"default_left":[0,0,0,0,0,0,0,0,0,0,0],"id":45,"left_children":[1,-1,3,-1,5,7,9,-1,-1,-1,-1],"loss_changes":[1.3713701E1,0E0,7.8883495E0,0E0,1.7582455E0,2.5586936E0,6.910982E-1,0E0,0E0,0E0,0E0],"parents":[2147483647,0,0,2,2,4,4,5,5,6,6],"right_children":[2,-1,4,-1,6,8,10,-1,-1,-1,-1],"split_conditions":[9.195241E1,9.19041E-2,1.9915023E0,7.9868235E-2,9.402331E1,1.03771286E2,6.327662E1,-5.9865493E-2,4.8766267E-2,-3.4646478E-3,-9.333307E-2],"split_indices":[0,0,3,0,0,1,1,0,0,0,0],"split_type":[0,0,0,0,0,0,0,0,0,0,0],"sum_hessian":[3.427837E1,1.0738139E1,2.3540232E1,3.7190552E0,1.9821177E1,7.494323E0,1.2326854E1,5.0083923E0,2.4859307E0,1.0042802E0,1.1322574E1],"tree_param":{"num_deleted":"0","num_feature":"6","num_nodes":"11","size_leaf_vector":"1"}},{"base_weights":[3.1925574E-2,7.805837E-1,-4.5730975E-1,9.112643E-2,1.6564764E-1,6.546999E-1,-7.5707406E-1,-1.3728415E-2,3.5980746E-2,8.596358E-2,1.9596042E-2,-9.219765E-2,-2.9042804E-1,5.6554478E-2,-6.5373875E-2],"categories":[],"categories_nodes":[],"categories_segments":[],"categories_sizes":[],"default_left":[0,0,0,0,0,0,0,0,0,0,0,0,0,0,0],"id":46,"left_children":[1,3,5,-1,7,9,11,-1,-1,-1,-1,-1,13,-1,-1],"loss_changes":[1.2403714E1,9.233227E-1,7.3365192E0,0E0,2.5908753E-1,2.9161763E-1,1.0118017E0,0E0,0E0,0E0,0E0,0E0,2.173945E0,0E0,0E0],"parents":[2147483647,0,0,1,1,2,2,4,4,5,5,6,6,12,12],"right_children":[2,4,6,-1,8,10,12,-1,-1,-1,-1,-1,14,-1,-1],"split_conditions":[9.2030396E1,9.195241E1,2.0123377E0,9.112643E-2,5.42452E1,6.1E1,1.0537861E2,-1.3728415E-2,3.5980746E-2,8.596358E-2,1.9596042E-2,-9.219765E-2,9.397338E1,5.6554478E-2,-6.5373875E-2],"split_indices":[0,0,3,0,2,4,1,0,0,0,0,0,0,0,0],"split_type":[0,0,0,0,0,0,0,0,0,0,0,0,0,0,0],"sum_hessian":[3.189034E1,1.2368216E1,1.9522125E1,9.803073E0,2.565143E0,3.8937542E0,1.5628371E1,1.1163404E0,1.4488028E0,2.08735E0,1.8064044E0,1.0826703E1,4.801668E0,1.264893E0,3.536775E0],"tree_param":{"num_deleted":"0","num_feature":"6","num_nodes":"15","size_leaf_vector":"1"}},{"base_weights":[3.460427E-2,7.6373E-1,-4.4274735E-1,9.030236E-2,1.5651672E-1,6.3303727E-1,-7.439841E-1,-1.2567684E-2,3.6195733E-2,7.765489E-2,9.449642E-3,-9.1404304E-2,-2.7589563E-1,4.0060457E-2,-7.326176E-2],"categories":[],"categories_nodes":[],"categories_segments":[],"categories_sizes":[],"default_left":[0,0,0,0,0,0,0,0,0,0,0,0,0,0,0],"id":47,"left_children":[1,3,5,-1,7,9,11,-1,-1,-1,-1,-1,13,-1,-1],"loss_changes":[1.1009072E1,9.157157E-1,6.6806283E0,0E0,2.5081208E-1,2.9234803E-1,9.76058E-1,0E0,0E0,0E0,0E0,0E0,2.006481E0,0E0,0E0],"parents":[2147483647,0,0,1,1,2,2,4,4,5,5,6,6,12,12],"right_children":[2,4,6,-1,8,10,12,-1,-1,-1,-1,-1,14,-1,-1],"split_conditions":[9.2030396E1,9.195241E1,2.0123377E0,9.030236E-2,4.6E1,9.807765E1,1.0537861E2,-1.2567684E-2,3.6195733E-2,7.765489E-2,9.449642E-3,-9.1404304E-2,9.402331E1,4.0060457E-2,-7.326176E-2],"split_indices":[0,0,3,0,4,0,1,0,0,0,0,0,0,0,0],"split_type":[0,0,0,0,0,0,0,0,0,0,0,0,0,0,0],"sum_hessian":[2.9659252E1,1.1497534E1,1.8161718E1,8.955905E0,2.541629E0,3.732096E0,1.4429622E1,1.234363E0,1.3072661E0,2.5978618E0,1.1342344E0,9.885468E0,4.5441546E0,1.8809485E0,2.663206E0],"tree_param":{"num_deleted":"0","num_feature":"6","num_nodes":"15","size_leaf_vector":"1"}},{"base_weights":[3.586369E-2,8.9430116E-2,-3.5146877E-1,7.652848E-2,-5.9429127E-1,-1.8390024E-1,-8.329494E-1,-5.3999346E-2,4.5335397E-2,-4.4575487E-3,-9.105742E-2],"categories":[],"categories_nodes":[],"categories_segments":[],"categories_sizes":[],"default_left":[0,0,0,0,0,0,0,0,0,0,0],"id":48,"left_children":[1,-1,3,-1,5,7,9,-1,-1,-1,-1],"loss_changes":[9.838499E0,0E0,6.0019135E0,0E0,1.5476432E0,1.9849977E0,6.1402225E-1,0E0,0E0,0E0,0E0],"parents":[2147483647,0,0,2,2,4,4,5,5,6,6],"right_children":[2,-1,4,-1,6,8,10,-1,-1,-1,-1],"split_conditions":[9.195241E1,8.9430116E-2,1.9915023E0,7.652848E-2,9.402331E1,1.03771286E2,6.401946E1,-5.3999346E-2,4.5335397E-2,-4.4575487E-3,-9.105742E-2],"split_indices":[0,0,3,0,0,1,1,0,0,0,0],"split_type":[0,0,0,0,0,0,0,0,0,0,0],"sum_hessian":[2.7644093E1,8.188097E0,1.9455996E1,3.0905888E0,1.6365406E1,6.668672E0,9.696733E0,4.376012E0,2.2926602E0,1.0102873E0,8.686446E0],"tree_param":{"num_deleted":"0","num_feature":"6","num_nodes":"11","size_leaf_vector":"1"}},{"base_weights":[3.6911994E-2,7.3431015E-1,-4.226073E-1,8.850832E-2,1.6490844E-1,6.0636026E-1,-7.227654E-1,-1.4182349E-2,3.6073264E-2,8.229754E-2,1.4964478E-2,-8.9873105E-2,-2.531983E-1,5.298223E-2,-6.042697E-2],"categories":[],"categories_nodes":[],"categories_segments":[],"categories_sizes":[],"default_left":[0,0,0,0,0,0,0,0,0,0,0,0,0,0,0],"id":49,"left_children":[1,3,5,-1,7,9,11,-1,-1,-1,-1,-1,13,-1,-1],"loss_changes":[8.915187E0,8.0099726E-1,5.633363E0,0E0,2.6368678E-1,3.0644798E-1,8.861184E-1,0E0,0E0,0E0,0E0,0E0,1.7128508E0,0E0,0E0],"parents":[2147483647,0,0,1,1,2,2,4,4,5,5,6,6,12,12],"right_children":[2,4,6,-1,8,10,12,-1,-1,-1,-1,-1,14,-1,-1],"split_conditions":[9.2030396E1,9.195241E1,2.0123377E0,8.850832E-2,5.42452E1,6.1E1,1.0537861E2,-1.4182349E-2,3.6073264E-2,8.229754E-2,1.4964478E-2,-8.9873105E-2,9.397338E1,5.298223E-2,-6.042697E-2],"split_indices":[0,0,3,0,2,4,1,0,0,0,0,0,0,0,0],"split_type":[0,0,0,0,0,0,0,0,0,0,0,0,0,0,0],"sum_hessian":[2.5850933E1,1.0030285E1,1.5820648E1,7.4920425E0,2.5382423E0,3.342418E0,1.247823E1,1.0964944E0,1.4417479E0,1.7231864E0,1.6192317E0,8.41197E0,4.06626E0,1.1011423E0,2.9651177E0],"tree_param":{"num_deleted":"0","num_feature":"6","num_nodes":"15","size_leaf_vector":"1"}},{"base_weights":[3.9754476E-2,7.1596146E-1,-4.0722352E-1,8.753629E-2,1.5578665E-1,5.854361E-1,-7.083718E-1,3.6195684E-2,-1.3334699E-2,8.0528095E-2,1.4095366E-2,-8.231427E-1,-6.3345553E-3,-8.895146E-2,-3.3806812E-2],"categories":[],"categories_nodes":[],"categories_segments":[],"categories_sizes":[],"default_left":[0,0,0,0,0,0,0,0,0,0,0,0,0,0,0],"id":50,"left_children":[1,3,5,-1,7,9,11,-1,-1,-1,-1,13,-1,-1,-1],"loss_changes":[7.8968897E0,7.901397E-1,5.133836E0,0E0,2.57799E-1,2.9904997E-1,8.7800074E-1,0E0,0E0,0E0,0E0,4.0009975E-2,0E0,0E0,0E0],"parents":[2147483647,0,0,1,1,2,2,4,4,5,5,6,6,11,11],"right_children":[2,4,6,-1,8,10,12,-1,-1,-1,-1,14,-1,-1,-1],"split_conditions":[9.2030396E1,9.195241E1,2.0123377E0,8.753629E-2,1.74E2,6.1E1,1.125218E2,3.6195684E-2,-1.3334699E-2,8.0528095E-2,1.4095366E-2,1.0537861E2,-6.3345553E-3,-8.895146E-2,-3.3806812E-2],"split_indices":[0,0,3,0,5,4,1,0,0,0,0,1,0,0,0],"split_type":[0,0,0,0,0,0,0,0,0,0,0,0,0,0,0],"sum_hessian":[2.4162424E1,9.376095E0,1.4786329E1,6.861071E0,2.5150232E0,3.2219539E0,1.1564375E1,1.3211176E0,1.1939056E0,1.612614E0,1.6093397E0,9.5830965E0,1.981279E0,7.696261E0,1.8868356E0],"tree_param":{"num_deleted":"0","num_feature":"6","num_nodes":"15","size_leaf_vector":"1"}},{"base_weights":[4.1054968E-2,8.651426E-2,-3.0451658E-1,7.325708E-2,-5.3587276E-1,-2.0962742E-1,-8.721928E-2,-4.06026E-2,4.2817738E-2],"categories":[],"categories_nodes":[],"categories_segments":[],"categories_sizes":[],"default_left":[0,0,0,0,0,0,0,0,0],"id":51,"left_children":[1,-1,3,-1,5,7,-1,-1,-1],"loss_changes":[7.0386906E0,0E0,4.5918655E0,0E0,1.4506125E0,1.2853298E0,0E0,0E0,0E0],"parents":[2147483647,0,0,2,2,4,4,5,5],"right_children":[2,-1,4,-1,6,8,-1,-1,-1],"split_conditions":[9.195241E1,8.651426E-2,1.9915023E0,7.325708E-2,9.530529E1,4.4176917E0,-8.721928E-2,-4.06026E-2,4.2817738E-2],"split_indices":[0,0,3,0,0,3,0,0,0],"split_type":[0,0,0,0,0,0,0,0,0],"sum_hessian":[2.2791035E1,6.2893214E0,1.6501713E1,2.6146677E0,1.3887046E1,7.873094E0,6.013952E0,6.2973566E0,1.5757376E0],"tree_param":{"num_deleted":"0","num_feature":"6","num_nodes":"9","size_leaf_vector":"1"}},{"base_weights":[4.2575855E-2,8.544075E-2,-2.8762585E-1,7.172588E-2,-5.0821114E-1,-1.8984163E-1,-8.603595E-2,-3.745936E-2,4.0067088E-2],"categories":[],"categories_nodes":[],"categories_segments":[],"categories_sizes":[],"default_left":[0,0,0,0,0,0,0,0,0],"id":52,"left_children":[1,-1,3,-1,5,7,-1,-1,-1],"loss_changes":[6.2893014E0,0E0,4.082796E0,0E0,1.4444125E0,1.111738E0,0E0,0E0,0E0],"parents":[2147483647,0,0,2,2,4,4,5,5],"right_children":[2,-1,4,-1,6,8,-1,-1,-1],"split_conditions":[9.195241E1,8.544075E-2,1.9915023E0,7.172588E-2,9.530529E1,4.4176917E0,-8.603595E-2,-3.745936E-2,4.0067088E-2],"split_indices":[0,0,3,0,0,3,0,0,0],"split_type":[0,0,0,0,0,0,0,0,0],"sum_hessian":[2.154483E1,5.7703514E0,1.5774479E1,2.4341228E0,1.3340356E1,7.814519E0,5.525837E0,6.230764E0,1.5837549E0],"tree_param":{"num_deleted":"0","num_feature":"6","num_nodes":"9","size_leaf_vector":"1"}},{"base_weights":[4.40464E-2,6.6671675E-1,-3.6134195E-1,8.431804E-2,1.5818027E-1,5.638655E-1,-6.460094E-1,-1.4707202E-2,3.522655E-2,7.815318E-2,1.1877126E-2,-8.66109E-2,-1.5855554E-1,5.3474065E-2,-5.3501453E-2],"categories":[],"categories_nodes":[],"categories_segments":[],"categories_sizes":[],"default_left":[0,0,0,0,0,0,0,0,0,0,0,0,0,0,0],"id":53,"left_children":[1,3,5,-1,7,9,11,-1,-1,-1,-1,-1,13,-1,-1],"loss_changes":[5.6472855E0,6.5605855E-1,3.9516635E0,0E0,2.5899637E-1,2.6939344E-1,1.0301933E0,0E0,0E0,0E0,0E0,0E0,1.4890815E0,0E0,0E0],"parents":[2147483647,0,0,1,1,2,2,4,4,5,5,6,6,12,12],"right_children":[2,4,6,-1,8,10,12,-1,-1,-1,-1,-1,14,-1,-1],"split_conditions":[9.2030396E1,9.195241E1,2.0123377E0,8.431804E-2,5.42452E1,6.1E1,1.0537861E2,-1.4707202E-2,3.522655E-2,7.815318E-2,1.1877126E-2,-8.66109E-2,9.397338E1,5.3474065E-2,-5.3501453E-2],"split_indices":[0,0,3,0,2,4,1,0,0,0,0,0,0,0,0],"split_type":[0,0,0,0,0,0,0,0,0,0,0,0,0,0,0],"sum_hessian":[2.0417883E1,7.7970676E0,1.2620814E1,5.2999253E0,2.4971423E0,2.7387433E0,9.8820715E0,1.064754E0,1.4323884E0,1.3316444E0,1.4070989E0,6.272881E0,3.6091902E0,1.1221542E0,2.487036E0],"tree_param":{"num_deleted":"0","num_feature":"6","num_nodes":"15","size_leaf_vector":"1"}},{"base_weights":[4.726934E-2,8.314699E-2,-2.5616312E-1,5.7989395E-1,-4.9965262E-1,7.853495E-2,1.4664381E-2,-6.232079E-2,-8.55567E-2,-4.190138E-2,4.663698E-2],"categories":[],"categories_nodes":[],"categories_segments":[],"categories_sizes":[],"default_left":[0,0,0,0,0,0,0,0,0,0,0],"id":54,"left_children":[1,-1,3,5,7,-1,-1,9,-1,-1,-1],"loss_changes":[5.0215235E0,0E0,3.4114602E0,2.3390567E-1,1.8788292E0,0E0,0E0,1.4491215E0,0E0,0E0,0E0],"parents":[2147483647,0,0,2,2,3,3,4,4,7,7],"right_children":[2,-1,4,6,8,-1,-1,10,-1,-1,-1],"split_conditions":[9.195241E1,8.314699E-2,2.0123377E0,6.1E1,9.402331E1,7.853495E-2,1.4664381E-2,1.03771286E2,-8.55567E-2,-4.190138E-2,4.663698E-2],"split_indices":[0,0,3,4,0,0,0,1,0,0,0],"split_type":[0,0,0,0,0,0,0,0,0,0,0],"sum_hessian":[1.9208E1,4.873237E0,1.4334764E1,2.9215598E0,1.1413203E1,1.4304974E0,1.4910624E0,5.648131E0,5.7650723E0,3.4965527E0,2.1515782E0],"tree_param":{"num_deleted":"0","num_feature":"6","num_nodes":"11","size_leaf_vector":"1"}},{"base_weights":[4.9784314E-2,6.350048E-1,-3.362068E-1,8.19291E-2,1.6246028E-1,5.236357E-1,-6.2077963E-1,-1.2904915E-2,3.7129015E-2,7.437497E-2,1.0391134E-2,-8.4584996E-2,-1.4010584E-1,5.0945807E-2,-4.9986813E-2],"categories":[],"categories_nodes":[],"categories_segments":[],"categories_sizes":[],"default_left":[0,0,0,0,0,0,0,0,0,0,0,0,0,0,0],"id":55,"left_children":[1,3,5,-1,7,9,11,-1,-1,-1,-1,-1,13,-1,-1],"loss_changes":[4.5462723E0,5.608916E-1,3.3131006E0,0E0,2.5996214E-1,2.5337112E-1,9.235997E-1,0E0,0E0,0E0,0E0,0E0,1.2526245E0,0E0,0E0],"parents":[2147483647,0,0,1,1,2,2,4,4,5,5,6,6,12,12],"right_children":[2,4,6,-1,8,10,12,-1,-1,-1,-1,-1,14,-1,-1],"split_conditions":[9.2030396E1,9.195241E1,2.0123377E0,8.19291E-2,4.6E1,6.1E1,1.0537861E2,-1.2904915E-2,3.7129015E-2,7.437497E-2,1.0391134E-2,-8.4584996E-2,9.397338E1,5.0945807E-2,-4.9986813E-2],"split_indices":[0,0,3,0,4,4,1,0,0,0,0,0,0,0,0],"split_type":[0,0,0,0,0,0,0,0,0,0,0,0,0,0,0],"sum_hessian":[1.8180935E1,6.9693E0,1.1211634E1,4.4860244E0,2.483276E0,2.579014E0,8.63262E0,1.1959141E0,1.2873616E0,1.1853772E0,1.393637E0,5.362139E0,3.2704809E0,1.0174114E0,2.2530696E0],"tree_param":{"num_deleted":"0","num_feature":"6","num_nodes":"15","size_leaf_vector":"1"}},{"base_weights":[5.3065214E-2,6.151224E-1,-3.2055834E-1,8.066577E-2,1.5403324E-1,5.0501627E-1,-6.0509694E-1,-1.50762815E-2,3.4836605E-2,7.248907E-2,9.808138E-3,-8.341151E-2,-1.3023628E-1,3.670109E-2,-6.0244728E-2],"categories":[],"categories_nodes":[],"categories_segments":[],"categories_sizes":[],"default_left":[0,0,0,0,0,0,0,0,0,0,0,0,0,0,0],"id":56,"left_children":[1,3,5,-1,7,9,11,-1,-1,-1,-1,-1,13,-1,-1],"loss_changes":[4.0144906E0,5.470402E-1,3.0250459E0,0E0,2.5786784E-1,2.4316877E-1,8.771317E-1,0E0,0E0,0E0,0E0,0E0,1.1918516E0,0E0,0E0],"parents":[2147483647,0,0,1,1,2,2,4,4,5,5,6,6,12,12],"right_children":[2,4,6,-1,8,10,12,-1,-1,-1,-1,-1,14,-1,-1],"split_conditions":[9.2030396E1,9.195241E1,2.0123377E0,8.066577E-2,5.42452E1,6.1E1,1.0537861E2,-1.50762815E-2,3.4836605E-2,7.248907E-2,9.808138E-3,-8.341151E-2,9.402331E1,3.670109E-2,-6.0244728E-2],"split_indices":[0,0,3,0,2,4,1,0,0,0,0,0,0,0,0],"split_type":[0,0,0,0,0,0,0,0,0,0,0,0,0,0,0],"sum_hessian":[1.7177847E1,6.601129E0,1.0576718E1,4.1342926E0,2.4668365E0,2.5123627E0,8.064356E0,1.04774E0,1.4190966E0,1.1238067E0,1.3885561E0,4.9300976E0,3.134258E0,1.6351724E0,1.4990857E0],"tree_param":{"num_deleted":"0","num_feature":"6","num_nodes":"15","size_leaf_vector":"1"}},{"base_weights":[5.447283E-2,7.936051E-2,-2.1407147E-1,6.661986E-2,-4.1918513E-1,-1.19422704E-1,-8.0833875E-2,-3.195409E-2,4.555054E-2],"categories":[],"categories_nodes":[],"categories_segments":[],"categories_sizes":[],"default_left":[0,0,0,0,0,0,0,0,0],"id":57,"left_children":[1,-1,3,-1,5,7,-1,-1,-1],"loss_changes":[3.5978096E0,0E0,2.7086592E0,0E0,1.2480397E0,1.0296531E0,0E0,0E0,0E0],"parents":[2147483647,0,0,2,2,4,4,5,5],"right_children":[2,-1,4,-1,6,8,-1,-1,-1],"split_conditions":[9.195241E1,7.936051E-2,1.9915023E0,6.661986E-2,9.530529E1,4.4176917E0,-8.0833875E-2,-3.195409E-2,4.555054E-2],"split_indices":[0,0,3,0,0,3,0,0,0],"split_type":[0,0,0,0,0,0,0,0,0],"sum_hessian":[1.6270016E1,3.8148744E0,1.2455142E1,1.9289355E0,1.0526207E1,6.6842504E0,3.8419564E0,5.287878E0,1.3963721E0],"tree_param":{"num_deleted":"0","num_feature":"6","num_nodes":"9","size_leaf_vector":"1"}},{"base_weights":[5.6138486E-2,7.801685E-2,-1.9976994E-1,6.507797E-2,-3.9487708E-1,-1.06103085E-1,-7.940638E-2,-2.9403621E-2,4.2812362E-2],"categories":[],"categories_nodes":[],"categories_segments":[],"categories_sizes":[],"default_left":[0,0,0,0,0,0,0,0,0],"id":58,"left_children":[1,-1,3,-1,5,7,-1,-1,-1],"loss_changes":[3.2215352E0,0E0,2.4177897E0,0E0,1.2084149E0,8.95039E-1,0E0,0E0,0E0],"parents":[2147483647,0,0,2,2,4,4,5,5],"right_children":[2,-1,4,-1,6,8,-1,-1,-1],"split_conditions":[9.195241E1,7.801685E-2,1.9915023E0,6.507797E-2,9.530529E1,4.4176917E0,-7.940638E-2,-2.9403621E-2,4.2812362E-2],"split_indices":[0,0,3,0,0,3,0,0,0],"split_type":[0,0,0,0,0,0,0,0,0],"sum_hessian":[1.5545727E1,3.5247345E0,1.2020993E1,1.8071982E0,1.0213795E1,6.660992E0,3.5528023E0,5.260152E0,1.4008404E0],"tree_param":{"num_deleted":"0","num_feature":"6","num_nodes":"9","size_leaf_vector":"1"}},{"base_weights":[5.7659715E-2,5.4607946E-1,-2.9586932E-1,7.6638035E-2,1.5139943E-1,4.7970602E-1,-5.7324165E-1,-1.289688E-2,3.4475062E-2,6.1715614E-2,9.382208E-3,-1.0753865E-1,-8.0293454E-2,-5.4830022E-2,3.23898E-2],"categories":[],"categories_nodes":[],"categories_segments":[],"categories_sizes":[],"default_left":[0,0,0,0,0,0,0,0,0,0,0,0,0,0,0],"id":59,"left_children":[1,3,5,-1,7,9,11,-1,-1,-1,-1,13,-1,-1,-1],"loss_changes":[2.905065E0,4.946034E-1,2.3973231E0,0E0,2.4839672E-1,1.0881591E-1,7.397082E-1,0E0,0E0,0E0,0E0,8.8221323E-1,0E0,0E0,0E0],"parents":[2147483647,0,0,1,1,2,2,4,4,5,5,6,6,11,11],"right_children":[2,4,6,-1,8,10,12,-1,-1,-1,-1,14,-1,-1,-1],"split_conditions":[9.231147E1,9.195241E1,2.0123377E0,7.6638035E-2,8.7606155E1,6.4E1,9.402331E1,-1.289688E-2,3.4475062E-2,6.1715614E-2,9.382208E-3,1.05076385E2,-8.0293454E-2,-5.4830022E-2,3.23898E-2],"split_indices":[0,0,3,0,1,4,0,0,0,0,0,1,0,0,0],"split_type":[0,0,0,0,0,0,0,0,0,0,0,0,0,0,0],"sum_hessian":[1.4888619E1,6.022942E0,8.865677E0,3.260971E0,2.761971E0,2.1432784E0,6.7223988E0,1.2632219E0,1.498749E0,1.1384401E0,1.0048382E0,2.705392E0,4.017007E0,1.2042464E0,1.5011454E0],"tree_param":{"num_deleted":"0","num_feature":"6","num_nodes":"15","size_leaf_vector":"1"}},{"base_weights":[5.8459185E-2,7.5228326E-2,-1.755415E-1,6.283548E-2,-3.6072984E-1,-9.0050906E-2,-7.679594E-2,-2.7056748E-2,4.1204046E-2],"categories":[],"categories_nodes":[],"categories_segments":[],"categories_sizes":[],"default_left":[0,0,0,0,0,0,0,0,0],"id":60,"left_children":[1,-1,3,-1,5,7,-1,-1,-1],"loss_changes":[2.598832E0,0E0,2.0388255E0,0E0,1.0914153E0,7.8741276E-1,0E0,0E0,0E0],"parents":[2147483647,0,0,2,2,4,4,5,5],"right_children":[2,-1,4,-1,6,8,-1,-1,-1],"split_conditions":[9.195241E1,7.5228326E-2,1.9915023E0,6.283548E-2,9.530529E1,4.4176917E0,-7.679594E-2,-2.7056748E-2,4.1204046E-2],"split_indices":[0,0,3,0,0,3,0,0,0],"split_type":[0,0,0,0,0,0,0,0,0],"sum_hessian":[1.4193679E1,3.0210965E0,1.1172583E1,1.6438086E0,9.528774E0,6.4576254E0,3.0711489E0,5.089073E0,1.3685522E0],"tree_param":{"num_deleted":"0","num_feature":"6","num_nodes":"9","size_leaf_vector":"1"}},{"base_weights":[5.99173E-2,5.1300955E-1,-2.7154335E-1,7.379171E-2,1.4619982E-1,4.6165537E-2,-5.4199713E-1,-1.3227438E-2,3.4978636E-2,-7.818766E-2,-8.5274264E-2,3.1206554E-2,-5.207297E-2],"categories":[],"categories_nodes":[],"categories_segments":[],"categories_sizes":[],"default_left":[0,0,0,0,0,0,0,0,0,0,0,0,0],"id":61,"left_children":[1,3,5,-1,7,-1,9,-1,-1,-1,11,-1,-1],"loss_changes":[2.3385773E0,4.3107557E-1,2.0569053E0,0E0,2.5774696E-1,0E0,7.1293044E-1,0E0,0E0,0E0,7.806832E-1,0E0,0E0],"parents":[2147483647,0,0,1,1,2,2,4,4,6,6,10,10],"right_children":[2,4,6,-1,8,-1,10,-1,-1,-1,12,-1,-1],"split_conditions":[9.231147E1,9.195241E1,2.0123377E0,7.379171E-2,4.7E1,4.6165537E-2,1.0537861E2,-1.3227438E-2,3.4978636E-2,-7.818766E-2,9.402331E1,3.1206554E-2,-5.207297E-2],"split_indices":[0,0,3,0,4,0,1,0,0,0,0,0,0],"split_type":[0,0,0,0,0,0,0,0,0,0,0,0,0],"sum_hessian":[1.3644026E1,5.5329714E0,8.111054E0,2.802758E0,2.7302134E0,1.9951764E0,6.1158776E0,1.3009706E0,1.4292428E0,3.5430653E0,2.5728123E0,1.4934464E0,1.0793661E0],"tree_param":{"num_deleted":"0","num_feature":"6","num_nodes":"13","size_leaf_vector":"1"}},{"base_weights":[5.9014983E-2,7.233155E-2,-1.5522963E-1,6.0385782E-2,-3.2906073E-1,-7.3419794E-2,-7.4311115E-2,-2.6884845E-2,3.6482144E-2],"categories":[],"categories_nodes":[],"categories_segments":[],"categories_sizes":[],"default_left":[0,0,0,0,0,0,0,0,0],"id":62,"left_children":[1,-1,3,-1,5,7,-1,-1,-1],"loss_changes":[2.1123676E0,0E0,1.7094936E0,0E0,1.0000428E0,7.2069186E-1,0E0,0E0,0E0],"parents":[2147483647,0,0,2,2,4,4,5,5],"right_children":[2,-1,4,-1,6,8,-1,-1,-1],"split_conditions":[9.195241E1,7.233155E-2,1.9915023E0,6.0385782E-2,9.530529E1,7.4511795E1,-7.4311115E-2,-2.6884845E-2,3.6482144E-2],"split_indices":[0,0,3,0,0,2,0,0,0],"split_type":[0,0,0,0,0,0,0,0,0],"sum_hessian":[1.3053178E1,2.603739E0,1.0449439E1,1.4861007E0,8.963339E0,6.2696705E0,2.693668E0,4.6033764E0,1.6662942E0],"tree_param":{"num_deleted":"0","num_feature":"6","num_nodes":"9","size_leaf_vector":"1"}},{"base_weights":[6.0085412E-2,4.816195E-1,-2.5205317E-1,7.085511E-2,1.4176363E-1,4.327893E-2,-5.113059E-1,-1.3822953E-2,3.2798868E-2,-7.6077536E-2,-6.2830865E-2,-3.769512E-2,2.3068193E-2],"categories":[],"categories_nodes":[],"categories_segments":[],"categories_sizes":[],"default_left":[0,0,0,0,0,0,0,0,0,0,0,0,0],"id":63,"left_children":[1,3,5,-1,7,-1,9,-1,-1,-1,11,-1,-1],"loss_changes":[1.909399E0,3.7193477E-1,1.7240613E0,0E0,2.3838952E-1,0E0,6.9041395E-1,0E0,0E0,0E0,4.048975E-1,0E0,0E0],"parents":[2147483647,0,0,1,1,2,2,4,4,6,6,10,10],"right_children":[2,4,6,-1,8,-1,10,-1,-1,-1,12,-1,-1],"split_conditions":[9.231147E1,9.195241E1,2.0123377E0,7.085511E-2,5.42452E1,4.327893E-2,1.0537861E2,-1.3822953E-2,3.2798868E-2,-7.6077536E-2,1.68E2,-3.769512E-2,2.3068193E-2],"split_indices":[0,0,3,0,2,0,1,0,0,0,5,0,0],"split_type":[0,0,0,0,0,0,0,0,0,0,0,0,0],"sum_hessian":[1.2589036E1,5.1249595E0,7.464076E0,2.4225173E0,2.7024424E0,1.8658559E0,5.59822E0,1.1824034E0,1.5200388E0,3.149766E0,2.4484541E0,1.045391E0,1.403063E0],"tree_param":{"num_deleted":"0","num_feature":"6","num_nodes":"13","size_leaf_vector":"1"}},{"base_weights":[5.9027918E-2,6.9363914E-2,-1.364675E-1,5.8088418E-2,-2.9946345E-1,-5.5354245E-2,-7.20716E-2,-2.3426287E-2,4.1902047E-2],"categories":[],"categories_nodes":[],"categories_segments":[],"categories_sizes":[],"default_left":[0,0,0,0,0,0,0,0,0],"id":64,"left_children":[1,-1,3,-1,5,7,-1,-1,-1],"loss_changes":[1.7238326E0,0E0,1.4454882E0,0E0,9.391785E-1,7.0168597E-1,0E0,0E0,0E0],"parents":[2147483647,0,0,2,2,4,4,5,5],"right_children":[2,-1,4,-1,6,8,-1,-1,-1],"split_conditions":[9.195241E1,6.9363914E-2,1.9915023E0,5.8088418E-2,9.530529E1,4.4176917E0,-7.20716E-2,-2.3426287E-2,4.1902047E-2],"split_indices":[0,0,3,0,0,3,0,0,0],"split_type":[0,0,0,0,0,0,0,0,0],"sum_hessian":[1.2131762E1,2.2570114E0,9.87475E0,1.3536199E0,8.521131E0,6.1111937E0,2.4099367E0,4.8051243E0,1.3060696E0],"tree_param":{"num_deleted":"0","num_feature":"6","num_nodes":"9","size_leaf_vector":"1"}},{"base_weights":[6.067919E-2,4.346216E-1,-2.4435973E-1,6.786506E-2,1.3468115E-1,4.0553432E-2,-5.0185996E-1,-1.6871624E-2,3.494035E-2,-5.9694387E-2,-7.3711395E-2,-3.5407048E-2,2.4637064E-2],"categories":[],"categories_nodes":[],"categories_segments":[],"categories_sizes":[],"default_left":[0,0,0,0,0,0,0,0,0,0,0,0,0],"id":65,"left_children":[1,3,5,-1,7,-1,9,-1,-1,11,-1,-1,-1],"loss_changes":[1.5590451E0,3.5376477E-1,1.4845262E0,0E0,3.179726E-1,0E0,5.727817E-1,0E0,0E0,3.7079692E-1,0E0,0E0,0E0],"parents":[2147483647,0,0,1,1,2,2,4,4,6,6,9,9],"right_children":[2,4,6,-1,8,-1,10,-1,-1,12,-1,-1,-1],"split_conditions":[9.254704E1,9.195241E1,2.0123377E0,6.786506E-2,8.7606155E1,4.0553432E-2,9.402331E1,-1.6871624E-2,3.494035E-2,1.71E2,-7.3711395E-2,-3.5407048E-2,2.4637064E-2],"split_indices":[0,0,3,0,1,0,0,0,0,5,0,0,0],"split_type":[0,0,0,0,0,0,0,0,0,0,0,0,0],"sum_hessian":[1.1736734E1,5.0819926E0,6.6547422E0,2.1059735E0,2.9760194E0,1.7253398E0,4.9294024E0,1.3221344E0,1.653885E0,2.1472807E0,2.7821217E0,1.0145909E0,1.13269E0],"tree_param":{"num_deleted":"0","num_feature":"6","num_nodes":"13","size_leaf_vector":"1"}},{"base_weights":[5.961138E-2,6.6363275E-2,-1.1891975E-1,5.5903357E-2,-2.721241E-1,-4.5620915E-2,-6.938594E-2,-2.780335E-2,3.0747449E-2],"categories":[],"categories_nodes":[],"categories_segments":[],"categories_sizes":[],"default_left":[0,0,0,0,0,0,0,0,0],"id":66,"left_children":[1,-1,3,-1,5,7,-1,-1,-1],"loss_changes":[1.4100058E0,0E0,1.2297859E0,0E0,8.4102243E-1,6.61076E-1,0E0,0E0,0E0],"parents":[2147483647,0,0,2,2,4,4,5,5],"right_children":[2,-1,4,-1,6,8,-1,-1,-1],"split_conditions":[9.195241E1,6.6363275E-2,1.9915023E0,5.5903357E-2,9.530529E1,1.03771286E2,-6.938594E-2,-2.780335E-2,3.0747449E-2],"split_indices":[0,0,3,0,0,1,0,0,0],"split_type":[0,0,0,0,0,0,0,0,0],"sum_hessian":[1.1343553E1,1.9680159E0,9.375537E0,1.23989E0,8.135647E0,6.013906E0,2.1217406E0,3.7549353E0,2.258971E0],"tree_param":{"num_deleted":"0","num_feature":"6","num_nodes":"9","size_leaf_vector":"1"}},{"base_weights":[6.01093E-2,4.1012153E-1,-2.2930817E-1,6.486492E-2,1.3352497E-1,3.866633E-2,-4.7879764E-1,-1.51112275E-2,3.346422E-2,-6.3070554E-1,6.2053264E-3,-1.8983204E-2,-7.2324984E-2],"categories":[],"categories_nodes":[],"categories_segments":[],"categories_sizes":[],"default_left":[0,0,0,0,0,0,0,0,0,0,0,0,0],"id":67,"left_children":[1,3,5,-1,7,-1,9,-1,-1,11,-1,-1,-1],"loss_changes":[1.3064196E0,2.9444242E-1,1.2904756E0,0E0,2.7574998E-1,0E0,4.9643004E-1,0E0,0E0,4.365313E-2,0E0,0E0,0E0],"parents":[2147483647,0,0,1,1,2,2,4,4,6,6,9,9],"right_children":[2,4,6,-1,8,-1,10,-1,-1,12,-1,-1,-1],"split_conditions":[9.254704E1,9.195241E1,2.0123377E0,6.486492E-2,8.7606155E1,3.866633E-2,1.125218E2,-1.51112275E-2,3.346422E-2,9.397338E1,6.2053264E-3,-1.8983204E-2,-7.2324984E-2],"split_indices":[0,0,3,0,1,0,1,0,0,0,0,0,0],"split_type":[0,0,0,0,0,0,0,0,0,0,0,0,0],"sum_hessian":[1.0968208E1,4.7756414E0,6.192567E0,1.8420284E0,2.933613E0,1.6266551E0,4.565912E0,1.3175485E0,1.6160645E0,3.4349947E0,1.1309172E0,1.1253197E0,2.309675E0],"tree_param":{"num_deleted":"0","num_feature":"6","num_nodes":"13","size_leaf_vector":"1"}},{"base_weights":[5.8656055E-2,4.2859504E-1,-1.9499967E-1,6.3369446E-2,1.3146624E-1,3.797699E-2,-4.2056742E-1,-1.5075016E-2,3.472444E-2,-7.21021E-2,2.286504E-2,-2.986811E-2,2.8586356E-2],"categories":[],"categories_nodes":[],"categories_segments":[],"categories_sizes":[],"default_left":[0,0,0,0,0,0,0,0,0,0,0,0,0],"id":68,"left_children":[1,3,5,-1,7,-1,9,-1,-1,-1,11,-1,-1],"loss_changes":[1.1766509E0,2.245E-1,1.1447556E0,0E0,2.547943E-1,0E0,8.066604E-1,0E0,0E0,0E0,3.699237E-1,0E0,0E0],"parents":[2147483647,0,0,1,1,2,2,4,4,6,6,10,10],"right_children":[2,4,6,-1,8,-1,10,-1,-1,-1,12,-1,-1],"split_conditions":[9.2030396E1,9.195241E1,2.0123377E0,6.3369446E-2,4.6E1,3.797699E-2,1.0537861E2,-1.5075016E-2,3.472444E-2,-7.21021E-2,1.68E2,-2.986811E-2,2.8586356E-2],"split_indices":[0,0,3,0,4,0,1,0,0,0,5,0,0],"split_type":[0,0,0,0,0,0,0,0,0,0,0,0,0],"sum_hessian":[1.0648641E1,4.050947E0,6.597693E0,1.7264813E0,2.324466E0,1.666828E0,4.930865E0,1.1377575E0,1.1867085E0,2.5661418E0,2.3647232E0,1.0028937E0,1.3618294E0],"tree_param":{"num_deleted":"0","num_feature":"6","num_nodes":"13","size_leaf_vector":"1"}},{"base_weights":[5.830016E-2,3.3966082E-1,-2.623209E-1,6.188483E-2,1.1863107E-1,3.1611424E-2,-5.3046525E-1,-1.4048715E-1,5.345255E-2,-4.5949346E-3,-6.9045454E-2,-4.7654327E-2,1.7820453E-2],"categories":[],"categories_nodes":[],"categories_segments":[],"categories_sizes":[],"default_left":[0,0,0,0,0,0,0,0,0,0,0,0,0],"id":69,"left_children":[1,3,5,-1,7,-1,9,11,-1,-1,-1,-1,-1],"loss_changes":[1.1107433E0,3.2569528E-1,1.0762109E0,0E0,5.9743047E-1,0E0,3.074597E-1,4.8956344E-1,0E0,0E0,0E0,0E0,0E0],"parents":[2147483647,0,0,1,1,2,2,4,4,6,6,7,7],"right_children":[2,4,6,-1,8,-1,10,12,-1,-1,-1,-1,-1],"split_conditions":[9.351591E1,9.195241E1,2.0123377E0,6.188483E-2,1.03771286E2,3.1611424E-2,9.402331E1,5.5879917E1,5.345255E-2,-4.5949346E-3,-6.9045454E-2,-4.7654327E-2,1.7820453E-2],"split_indices":[0,0,3,0,1,0,0,2,0,0,0,0,0],"split_type":[0,0,0,0,0,0,0,0,0,0,0,0,0],"sum_hessian":[1.0325146E1,5.46764E0,4.857506E0,1.6206809E0,3.846959E0,1.4818962E0,3.3756094E0,2.7782238E0,1.0687354E0,1.1574769E0,2.2181325E0,1.1111839E0,1.6670399E0],"tree_param":{"num_deleted":"0","num_feature":"6","num_nodes":"13","size_leaf_vector":"1"}},{"base_weights":[5.787433E-2,3.2774773E-1,-2.5092945E-1,6.0412057E-2,1.13386445E-1,2.9855905E-2,-5.128536E-1,-1.3497536E-1,5.1945772E-2,-4.350932E-3,-6.7542344E-2,-4.5337267E-2,1.6763037E-2],"categories":[],"categories_nodes":[],"categories_segments":[],"categories_sizes":[],"default_left":[0,0,0,0,0,0,0,0,0,0,0,0,0],"id":70,"left_children":[1,3,5,-1,7,-1,9,11,-1,-1,-1,-1,-1],"loss_changes":[9.9932677E-1,3.0509096E-1,9.7325873E-1,0E0,5.5243945E-1,0E0,2.9313195E-1,4.38391E-1,0E0,0E0,0E0,0E0,0E0],"parents":[2147483647,0,0,1,1,2,2,4,4,6,6,7,7],"right_children":[2,4,6,-1,8,-1,10,12,-1,-1,-1,-1,-1],"split_conditions":[9.351591E1,9.195241E1,2.0123377E0,6.0412057E-2,1.03771286E2,2.9855905E-2,9.402331E1,5.5879917E1,5.1945772E-2,-4.350932E-3,-6.7542344E-2,-4.5337267E-2,1.6763037E-2],"split_indices":[0,0,3,0,1,0,0,2,0,0,0,0,0],"split_type":[0,0,0,0,0,0,0,0,0,0,0,0,0],"sum_hessian":[1.0004417E1,5.3059945E0,4.698423E0,1.5235145E0,3.7824798E0,1.4715024E0,3.2269204E0,2.7612484E0,1.0212314E0,1.1562951E0,2.0706255E0,1.1027364E0,1.658512E0],"tree_param":{"num_deleted":"0","num_feature":"6","num_nodes":"13","size_leaf_vector":"1"}},{"base_weights":[5.7357043E-2,5.952809E-2,-9.032577E-2,1.1500641E-1,-6.427838E-2,-6.765857E-2,4.535361E-2,-2.8245125E-2,4.5299184E-2],"categories":[],"categories_nodes":[],"categories_segments":[],"categories_sizes":[],"default_left":[0,0,0,0,0,0,0,0,0],"id":71,"left_children":[1,-1,3,5,-1,7,-1,-1,-1],"loss_changes":[9.046609E-1,0E0,1.1257079E0,5.011347E-1,0E0,7.778781E-1,0E0,0E0,0E0],"parents":[2147483647,0,0,2,2,3,3,5,5],"right_children":[2,-1,4,6,-1,8,-1,-1,-1],"split_conditions":[1.9915023E0,5.952809E-2,9.530529E1,7.4511795E1,-6.427838E-2,4.3735666E0,4.535361E-2,-2.8245125E-2,4.5299184E-2],"split_indices":[3,0,0,2,0,3,0,0,0],"split_type":[0,0,0,0,0,0,0,0,0],"sum_hessian":[9.71084E0,1.4389098E0,8.271931E0,6.607826E0,1.6641043E0,4.8116693E0,1.7961568E0,3.730264E0,1.0814055E0],"tree_param":{"num_deleted":"0","num_feature":"6","num_nodes":"9","size_leaf_vector":"1"}},{"base_weights":[5.802891E-2,3.110205E-1,-2.3765561E-1,5.851205E-2,1.0404604E-1,2.7822202E-2,-4.875528E-1,-1.325148E-1,4.8801657E-2,-4.3674866E-3,-6.512138E-2,-4.324625E-2,1.512598E-2],"categories":[],"categories_nodes":[],"categories_segments":[],"categories_sizes":[],"default_left":[0,0,0,0,0,0,0,0,0,0,0,0,0],"id":72,"left_children":[1,3,5,-1,7,-1,9,11,-1,-1,-1,-1,-1],"loss_changes":[8.6058116E-1,2.8520292E-1,8.338306E-1,0E0,4.9085894E-1,0E0,2.629944E-1,3.79479E-1,0E0,0E0,0E0,0E0,0E0],"parents":[2147483647,0,0,1,1,2,2,4,4,6,6,7,7],"right_children":[2,4,6,-1,8,-1,10,12,-1,-1,-1,-1,-1],"split_conditions":[9.351591E1,9.195241E1,2.0123377E0,5.851205E-2,1.0123698E2,2.7822202E-2,9.402331E1,5.5879917E1,4.8801657E-2,-4.3674866E-3,-6.512138E-2,-4.324625E-2,1.512598E-2],"split_indices":[0,0,3,0,1,0,0,2,0,0,0,0,0],"split_type":[0,0,0,0,0,0,0,0,0,0,0,0,0],"sum_hessian":[9.516116E0,5.1003356E0,4.4157805E0,1.4082916E0,3.6920438E0,1.404024E0,3.0117564E0,2.689778E0,1.0022657E0,1.1525896E0,1.8591669E0,1.0529028E0,1.6368753E0],"tree_param":{"num_deleted":"0","num_feature":"6","num_nodes":"13","size_leaf_vector":"1"}},{"base_weights":[5.7147015E-2,5.7550568E-2,-8.427841E-2,1.058848E-1,-6.1728984E-2,-1.3977326E-1,3.2346815E-1,3.7713163E-2,-4.468343E-2,-2.694059E-3,5.1195204E-2],"categories":[],"categories_nodes":[],"categories_segments":[],"categories_sizes":[],"default_left":[0,0,0,0,0,0,0,0,0,0,0],"id":73,"left_children":[1,-1,3,5,-1,7,9,-1,-1,-1,-1],"loss_changes":[8.005704E-1,0E0,9.7071445E-1,4.4272554E-1,0E0,8.337783E-1,2.9419646E-1,0E0,0E0,0E0,0E0],"parents":[2147483647,0,0,2,2,3,3,5,5,6,6],"right_children":[2,-1,4,6,-1,8,10,-1,-1,-1,-1],"split_conditions":[1.9915023E0,5.7550568E-2,9.530529E1,5.554048E1,-6.1728984E-2,2.8847784E1,5.3E1,3.7713163E-2,-4.468343E-2,-2.694059E-3,5.1195204E-2],"split_indices":[3,0,0,2,0,2,4,0,0,0,0],"split_type":[0,0,0,0,0,0,0,0,0,0,0],"sum_hessian":[9.25886E0,1.3267341E0,7.932126E0,6.436952E0,1.495174E0,3.1913893E0,3.2455626E0,1.1042699E0,2.0871196E0,1.4349416E0,1.810621E0],"tree_param":{"num_deleted":"0","num_feature":"6","num_nodes":"11","size_leaf_vector":"1"}},{"base_weights":[5.612837E-2,5.664227E-2,-8.4517084E-2,2.9598272E-1,-3.022282E-1,4.847244E-2,-2.2002903E-3,-5.257707E-1,2.5981486E-2,-6.772678E-2,-1.0558809E-2],"categories":[],"categories_nodes":[],"categories_segments":[],"categories_sizes":[],"default_left":[0,0,0,0,0,0,0,0,0,0,0],"id":74,"left_children":[1,-1,3,5,7,-1,-1,9,-1,-1,-1],"loss_changes":[7.7030057E-1,0E0,8.1521463E-1,2.3235103E-1,8.9891255E-1,0E0,0E0,2.2586656E-1,0E0,0E0,0E0],"parents":[2147483647,0,0,2,2,3,3,4,4,7,7],"right_children":[2,-1,4,6,8,-1,-1,10,-1,-1,-1],"split_conditions":[9.195241E1,5.664227E-2,2.571231E0,6E1,4.4176917E0,4.847244E-2,-2.2002903E-3,1.0537861E2,2.5981486E-2,-6.772678E-2,-1.0558809E-2],"split_indices":[0,0,3,4,3,0,0,1,0,0,0],"split_type":[0,0,0,0,0,0,0,0,0,0,0],"sum_hessian":[9.065798E0,1.3047075E0,7.7610908E0,2.6937058E0,5.067385E0,1.3613256E0,1.3323802E0,3.6716063E0,1.3957788E0,2.2489161E0,1.4226902E0],"tree_param":{"num_deleted":"0","num_feature":"6","num_nodes":"11","size_leaf_vector":"1"}},{"base_weights":[5.6439824E-2,3.701999E-1,-1.6563223E-1,1.21899344E-1,5.8497757E-2,2.9491594E-2,-3.5993972E-1,-1.1598266E-2,2.9306298E-2,-6.647568E-2,5.594118E-2,-2.17255E-2,3.0639067E-2],"categories":[],"categories_nodes":[],"categories_segments":[],"categories_sizes":[],"default_left":[0,0,0,0,0,0,0,0,0,0,0,0,0],"id":75,"left_children":[1,3,5,7,-1,-1,9,-1,-1,-1,11,-1,-1],"loss_changes":[7.516522E-1,1.6415429E-1,6.871389E-1,1.6880536E-1,0E0,0E0,6.7309207E-1,0E0,0E0,0E0,2.7484167E-1,0E0,0E0],"parents":[2147483647,0,0,1,1,2,2,3,3,6,6,10,10],"right_children":[2,4,6,8,-1,-1,10,-1,-1,-1,12,-1,-1],"split_conditions":[9.2030396E1,1.78E2,2.0123377E0,8.7606155E1,5.8497757E-2,2.9491594E-2,1.0537861E2,-1.1598266E-2,2.9306298E-2,-6.647568E-2,3.450645E0,-2.17255E-2,3.0639067E-2],"split_indices":[0,5,3,1,0,0,1,0,0,0,3,0,0],"split_type":[0,0,0,0,0,0,0,0,0,0,0,0,0],"sum_hessian":[8.907598E0,3.41525E0,5.4923477E0,2.3110487E0,1.1042013E0,1.476044E0,4.0163035E0,1.1019516E0,1.2090973E0,1.9722939E0,2.04401E0,1.0410012E0,1.0030087E0],"tree_param":{"num_deleted":"0","num_feature":"6","num_nodes":"13","size_leaf_vector":"1"}},{"base_weights":[5.6630135E-2,2.9269096E-1,-2.214068E-1,8.674061E-2,5.472979E-2,2.347485E-2,-4.4829458E-1,4.110025E-2,-1.4612323E-1,-3.2280074E-3,-6.1434843E-2,6.234705E-3,-2.8493498E-2],"categories":[],"categories_nodes":[],"categories_segments":[],"categories_sizes":[],"default_left":[0,0,0,0,0,0,0,0,0,0,0,0,0],"id":76,"left_children":[1,3,5,7,-1,-1,9,-1,11,-1,-1,-1,-1],"loss_changes":[7.013279E-1,2.5013858E-1,6.2504256E-1,3.8670698E-1,0E0,0E0,2.3561776E-1,0E0,1.11974485E-1,0E0,0E0,0E0,0E0],"parents":[2147483647,0,0,1,1,2,2,3,3,6,6,8,8],"right_children":[2,4,6,8,-1,-1,10,-1,12,-1,-1,-1,-1],"split_conditions":[9.351591E1,9.949844E1,2.0123377E0,2.6901333E0,5.472979E-2,2.347485E-2,9.402331E1,4.110025E-2,1.75E2,-3.2280074E-3,-6.1434843E-2,6.234705E-3,-2.8493498E-2],"split_indices":[0,1,3,3,0,0,0,0,5,0,0,0,0],"split_type":[0,0,0,0,0,0,0,0,0,0,0,0,0],"sum_hessian":[8.69814E0,4.675668E0,4.0224724E0,3.3259814E0,1.3496861E0,1.3246442E0,2.697828E0,1.0704266E0,2.255555E0,1.1103827E0,1.5874455E0,1.1217458E0,1.133809E0],"tree_param":{"num_deleted":"0","num_feature":"6","num_nodes":"13","size_leaf_vector":"1"}},{"base_weights":[5.5333927E-2,5.3878486E-2,-7.688332E-2,2.6384404E-1,-2.7476346E-1,4.5784045E-2,-4.287466E-3,-5.003858E-1,2.4952969E-2,-6.288493E-2,-3.7359712E-3],"categories":[],"categories_nodes":[],"categories_segments":[],"categories_sizes":[],"default_left":[0,0,0,0,0,0,0,0,0,0,0],"id":77,"left_children":[1,-1,3,5,7,-1,-1,9,-1,-1,-1],"loss_changes":[6.492262E-1,0E0,6.3492584E-1,2.3234168E-1,8.070472E-1,0E0,0E0,2.3612332E-1,0E0,0E0,0E0],"parents":[2147483647,0,0,2,2,3,3,4,4,7,7],"right_children":[2,-1,4,6,8,-1,-1,10,-1,-1,-1],"split_conditions":[9.195241E1,5.3878486E-2,2.571231E0,6E1,4.3735666E0,4.5784045E-2,-4.287466E-3,1.78E2,2.4952969E-2,-6.288493E-2,-3.7359712E-3],"split_indices":[0,0,3,4,3,0,0,5,0,0,0],"split_type":[0,0,0,0,0,0,0,0,0,0,0],"sum_hessian":[8.50872E0,1.1669143E0,7.3418064E0,2.5748506E0,4.766956E0,1.275442E0,1.2994086E0,3.3646321E0,1.4023237E0,2.3535311E0,1.0111008E0],"tree_param":{"num_deleted":"0","num_feature":"6","num_nodes":"11","size_leaf_vector":"1"}},{"base_weights":[5.619138E-2,3.4963048E-1,-1.52998E-1,1.10658884E-1,5.5878695E-2,2.5679026E-2,-3.318182E-1,-1.0888206E-2,2.712196E-2,-6.4055376E-2,6.863855E-3],"categories":[],"categories_nodes":[],"categories_segments":[],"categories_sizes":[],"default_left":[0,0,0,0,0,0,0,0,0,0,0],"id":78,"left_children":[1,3,5,7,-1,-1,9,-1,-1,-1,-1],"loss_changes":[6.3043183E-1,1.488958E-1,5.382668E-1,1.4284894E-1,0E0,0E0,6.300791E-1,0E0,0E0,0E0,0E0],"parents":[2147483647,0,0,1,1,2,2,3,3,6,6],"right_children":[2,4,6,8,-1,-1,10,-1,-1,-1,-1],"split_conditions":[9.2030396E1,1.78E2,2.0123377E0,8.7606155E1,5.5878695E-2,2.5679026E-2,1.0537861E2,-1.0888206E-2,2.712196E-2,-6.4055376E-2,6.863855E-3],"split_indices":[0,5,3,1,0,0,1,0,0,0,0],"split_type":[0,0,0,0,0,0,0,0,0,0,0],"sum_hessian":[8.398799E0,3.2160902E0,5.182709E0,2.2147272E0,1.001363E0,1.4420503E0,3.7406588E0,1.0714945E0,1.1432328E0,1.7736728E0,1.966986E0],"tree_param":{"num_deleted":"0","num_feature":"6","num_nodes":"11","size_leaf_vector":"1"}},{"base_weights":[5.57393E-2,2.798765E-1,-2.076353E-1,8.2517326E-2,5.3439405E-2,2.0004487E-2,-4.1631326E-1,3.8173325E-2,-1.3121454E-1,-1.5107775E-3,-5.8879275E-2,-2.630995E-2,7.1696914E-3],"categories":[],"categories_nodes":[],"categories_segments":[],"categories_sizes":[],"default_left":[0,0,0,0,0,0,0,0,0,0,0,0,0],"id":79,"left_children":[1,3,5,7,-1,-1,9,-1,11,-1,-1,-1,-1],"loss_changes":[6.025148E-1,2.275599E-1,4.9283084E-1,3.2052284E-1,0E0,0E0,2.33908E-1,0E0,1.04790434E-1,0E0,0E0,0E0,0E0],"parents":[2147483647,0,0,1,1,2,2,3,3,6,6,8,8],"right_children":[2,4,6,8,-1,-1,10,-1,12,-1,-1,-1,-1],"split_conditions":[9.351591E1,1.0212986E2,2.0123377E0,2.7171798E0,5.3439405E-2,2.0004487E-2,9.402331E1,3.8173325E-2,4.7E1,-1.5107775E-3,-5.8879275E-2,-2.630995E-2,7.1696914E-3],"split_indices":[0,1,3,3,0,0,0,0,4,0,0,0,0],"split_type":[0,0,0,0,0,0,0,0,0,0,0,0,0],"sum_hessian":[8.222153E0,4.408107E0,3.8140457E0,3.228702E0,1.1794049E0,1.3053132E0,2.5087326E0,1.017794E0,2.2109082E0,1.0812417E0,1.4274907E0,1.1601992E0,1.0507089E0],"tree_param":{"num_deleted":"0","num_feature":"6","num_nodes":"13","size_leaf_vector":"1"}},{"base_weights":[5.454909E-2,5.1608462E-2,-7.0399985E-2,1.0355769E-1,-5.707826E-2,-6.638488E-2,4.1080624E-2,-3.300905E-2,3.0642852E-2],"categories":[],"categories_nodes":[],"categories_segments":[],"categories_sizes":[],"default_left":[0,0,0,0,0,0,0,0,0],"id":80,"left_children":[1,-1,3,5,-1,7,-1,-1,-1],"loss_changes":[5.589335E-1,0E0,7.564698E-1,3.8187104E-1,0E0,6.156726E-1,0E0,0E0,0E0],"parents":[2147483647,0,0,2,2,3,3,5,5],"right_children":[2,-1,4,6,-1,8,-1,-1,-1],"split_conditions":[1.9915023E0,5.1608462E-2,9.530529E1,7.4511795E1,-5.707826E-2,1.03771286E2,4.1080624E-2,-3.300905E-2,3.0642852E-2],"split_indices":[3,0,0,2,0,1,0,0,0],"split_type":[0,0,0,0,0,0,0,0,0],"sum_hessian":[8.062171E0,1.05071E0,7.011461E0,5.791198E0,1.2202629E0,4.2335253E0,1.5576724E0,2.5467236E0,1.6868019E0],"tree_param":{"num_deleted":"0","num_feature":"6","num_nodes":"9","size_leaf_vector":"1"}},{"base_weights":[5.3631358E-2,3.3258712E-1,-1.5084934E-1,5.708815E-3,4.68272E-2,2.2766395E-2,-3.1864387E-1,-6.1378755E-2,5.729496E-3],"categories":[],"categories_nodes":[],"categories_segments":[],"categories_sizes":[],"default_left":[0,0,0,0,0,0,0,0,0],"id":81,"left_children":[1,3,5,-1,-1,-1,7,-1,-1],"loss_changes":[5.587231E-1,1.2589684E-1,4.4297853E-1,0E0,0E0,0E0,5.2978694E-1,0E0,0E0],"parents":[2147483647,0,0,1,1,2,2,6,6],"right_children":[2,4,6,-1,-1,-1,8,-1,-1],"split_conditions":[9.2030396E1,4.6E1,2.0123377E0,5.708815E-3,4.68272E-2,2.2766395E-2,1.0537861E2,-6.1378755E-2,5.729496E-3],"split_indices":[0,4,3,0,0,0,1,0,0],"split_type":[0,0,0,0,0,0,0,0,0],"sum_hessian":[7.9155507E0,3.083075E0,4.8324757E0,1.4861957E0,1.5968795E0,1.3746711E0,3.4578047E0,1.5826286E0,1.8751761E0],"tree_param":{"num_deleted":"0","num_feature":"6","num_nodes":"9","size_leaf_vector":"1"}},{"base_weights":[5.1164087E-2,5.025598E-2,-7.243533E-2,2.2619972E-1,-2.4496758E-1,4.2599622E-2,-7.033436E-3,-4.677451E-1,2.7643194E-2,-5.8270015E-2,-5.41605E-3],"categories":[],"categories_nodes":[],"categories_segments":[],"categories_sizes":[],"default_left":[0,0,0,0,0,0,0,0,0,0,0],"id":82,"left_children":[1,-1,3,5,7,-1,-1,9,-1,-1,-1],"loss_changes":[5.2524585E-1,0E0,4.5484984E-1,2.2895381E-1,7.558146E-1,0E0,0E0,1.6577148E-1,0E0,0E0,0E0],"parents":[2147483647,0,0,2,2,3,3,4,4,7,7],"right_children":[2,-1,4,6,8,-1,-1,10,-1,-1,-1],"split_conditions":[9.195241E1,5.025598E-2,2.571231E0,6E1,4.4176917E0,4.2599622E-2,-7.033436E-3,6.9E1,2.7643194E-2,-5.8270015E-2,-5.41605E-3],"split_indices":[0,0,3,4,3,0,0,4,0,0,0],"split_type":[0,0,0,0,0,0,0,0,0,0,0],"sum_hessian":[7.7618394E0,1.0093971E0,6.7524424E0,2.358709E0,4.393733E0,1.1483788E0,1.2103304E0,3.1505203E0,1.2432129E0,2.1453283E0,1.0051919E0],"tree_param":{"num_deleted":"0","num_feature":"6","num_nodes":"11","size_leaf_vector":"1"}},{"base_weights":[5.2356675E-2,2.622488E-1,-1.9607066E-1,7.176903E-2,5.07887E-2,1.691374E-2,-3.853156E-1,-1.3993225E-2,3.547387E-2,-1.1996919E-3,-5.550456E-2],"categories":[],"categories_nodes":[],"categories_segments":[],"categories_sizes":[],"default_left":[0,0,0,0,0,0,0,0,0,0,0],"id":83,"left_children":[1,3,5,7,-1,-1,9,-1,-1,-1,-1],"loss_changes":[5.033772E-1,2.0339158E-1,3.7906164E-1,2.923587E-1,0E0,0E0,2.0222181E-1,0E0,0E0,0E0,0E0],"parents":[2147483647,0,0,1,1,2,2,3,3,6,6],"right_children":[2,4,6,8,-1,-1,10,-1,-1,-1,-1],"split_conditions":[9.351591E1,1.0212986E2,2.0123377E0,1.78E2,5.07887E-2,1.691374E-2,9.402331E1,-1.3993225E-2,3.547387E-2,-1.1996919E-3,-5.550456E-2],"split_indices":[0,1,3,5,0,0,0,0,0,0,0],"split_type":[0,0,0,0,0,0,0,0,0,0,0],"sum_hessian":[7.6676707E0,4.1260247E0,3.5416462E0,3.0517347E0,1.0742899E0,1.2450942E0,2.296552E0,2.0348592E0,1.0168755E0,1.0524299E0,1.244122E0],"tree_param":{"num_deleted":"0","num_feature":"6","num_nodes":"11","size_leaf_vector":"1"}},{"base_weights":[5.1575556E-2,2.8696448E-1,-1.5563412E-1,8.7021865E-2,4.778596E-2,1.8608613E-2,-3.1956083E-1,4.5983713E-2,-2.764966E-2,-5.5538554E-2,3.1495732E-4],"categories":[],"categories_nodes":[],"categories_segments":[],"categories_sizes":[],"default_left":[0,0,0,0,0,0,0,0,0,0,0],"id":84,"left_children":[1,3,5,7,-1,-1,9,-1,-1,-1,-1],"loss_changes":[4.612859E-1,1.24470234E-1,3.5026017E-1,5.808283E-1,0E0,0E0,2.9674408E-1,0E0,0E0,0E0,0E0],"parents":[2147483647,0,0,1,1,2,2,3,3,6,6],"right_children":[2,4,6,8,-1,-1,10,-1,-1,-1,-1],"split_conditions":[9.254704E1,1.78E2,2.0123377E0,1.69E2,4.778596E-2,1.8608613E-2,1.0537861E2,4.5983713E-2,-2.764966E-2,-5.5538554E-2,3.1495732E-4],"split_indices":[0,5,3,5,0,0,1,0,0,0,0],"split_type":[0,0,0,0,0,0,0,0,0,0,0],"sum_hessian":[7.541786E0,3.3506122E0,4.191174E0,2.3476048E0,1.0030075E0,1.3149213E0,2.8762527E0,1.0281737E0,1.319431E0,1.24526E0,1.6309925E0],"tree_param":{"num_deleted":"0","num_feature":"6","num_nodes":"11","size_leaf_vector":"1"}},{"base_weights":[5.0623115E-2,2.4919537E-1,-1.8497387E-1,6.508931E-2,4.8960473E-2,1.4976452E-2,-3.626233E-1,-1.7383002E-2,2.3118246E-2,-5.7171186E-4,-5.334091E-2],"categories":[],"categories_nodes":[],"categories_segments":[],"categories_sizes":[],"default_left":[0,0,0,0,0,0,0,0,0,0,0],"id":85,"left_children":[1,3,5,7,-1,-1,9,-1,-1,-1,-1],"loss_changes":[4.3964982E-1,1.890336E-1,3.1723407E-1,1.9811435E-1,0E0,0E0,1.9083309E-1,0E0,0E0,0E0,0E0],"parents":[2147483647,0,0,1,1,2,2,3,3,6,6],"right_children":[2,4,6,8,-1,-1,10,-1,-1,-1,-1],"split_conditions":[9.351591E1,1.0212986E2,2.0123377E0,5.42452E1,4.8960473E-2,1.4976452E-2,9.402331E1,-1.7383002E-2,2.3118246E-2,-5.7171186E-4,-5.334091E-2],"split_indices":[0,1,3,2,0,0,0,0,0,0,0],"split_type":[0,0,0,0,0,0,0,0,0,0,0],"sum_hessian":[7.4123507E0,3.990907E0,3.4214437E0,2.9797506E0,1.0111563E0,1.2406666E0,2.180777E0,1.2028747E0,1.7768759E0,1.0402821E0,1.1404948E0],"tree_param":{"num_deleted":"0","num_feature":"6","num_nodes":"11","size_leaf_vector":"1"}},{"base_weights":[4.8064195E-2,2.9415682E-1,-1.3386212E-1,4.347063E-3,4.2162266E-2,1.8091595E-2,-2.809779E-1,-5.7469584E-2,7.0013255E-3],"categories":[],"categories_nodes":[],"categories_segments":[],"categories_sizes":[],"default_left":[0,0,0,0,0,0,0,0,0],"id":86,"left_children":[1,3,5,-1,-1,-1,7,-1,-1],"loss_changes":[4.1077456E-1,1.0433379E-1,3.0353335E-1,0E0,0E0,0E0,4.6399665E-1,0E0,0E0],"parents":[2147483647,0,0,1,1,2,2,6,6],"right_children":[2,4,6,-1,-1,-1,8,-1,-1],"split_conditions":[9.2030396E1,4.6E1,2.0123377E0,4.347063E-3,4.2162266E-2,1.8091595E-2,1.0537861E2,-5.7469584E-2,7.0013255E-3],"split_indices":[0,4,3,0,0,0,1,0,0],